{"0_weights": [[-0.42825958132743835, 0.22453898191452026, 0.1536141335964203, -0.43209657073020935, 0.1012905091047287, -0.7418449521064758, -0.41675904393196106, -0.1898159235715866, 0.2506183385848999, 0.054835159331560135, 0.4112075865268707, 0.12059030681848526, -0.24899016320705414, 0.037849899381399155, 0.34547263383865356, -0.36564239859580994], [-0.4320504069328308, 0.1858043670654297, 0.39273878931999207, -0.2889694273471832, -0.2970750033855438, 0.08662793785333633, 0.7939699292182922, -0.17403605580329895, 0.47704944014549255, 0.5752187371253967, 0.05869067832827568, -0.4164626896381378, -0.20307816565036774, 0.4529429078102112, 0.6271492838859558, 0.20491430163383484], [-0.5455567240715027, -0.6450706124305725, -0.3845262825489044, -0.0621873177587986, 0.4100390374660492, 0.7960391640663147, 0.08092029392719269, -0.47136199474334717, -0.0251067653298378, 0.027601152658462524, -0.10239850729703903, 0.5673112273216248, -0.17877353727817535, -0.4394943118095398, 0.7597948312759399, 0.2136557400226593], [-0.16152323782444, 0.11129572242498398, -0.0055890390649437904, 0.11537982523441315, -0.2437262237071991, 0.5002173185348511, -0.37446630001068115, 0.15382415056228638, -0.8742223978042603, 0.14941206574440002, -0.9944013357162476, 0.1299782693386078, 0.3938177824020386, -0.321968138217926, -0.3456423282623291, -0.8879690170288086], [0.5188056826591492, 0.1720607876777649, 0.4245559871196747, 0.20146554708480835, -0.19423405826091766, 0.1750720590353012, -0.1617828905582428, -0.1800333559513092, 0.6722540855407715, 0.6815220713615417, 0.4397842586040497, 0.2612437903881073, 0.483392596244812, -0.6330807209014893, 0.24720726907253265, -0.1273920238018036], [0.5941978096961975, -0.837224543094635, -0.15815652906894684, -1.251564621925354, 0.07186529040336609, 0.21070647239685059, 0.07147075980901718, -0.540727436542511, 0.20255355536937714, 0.15334786474704742, 0.16020478308200836, 0.45863011479377747, 0.33457499742507935, 0.6460881233215332, 0.1211879625916481, -0.34776771068573], [-0.35271912813186646, 0.5015465617179871, -0.3178504705429077, -0.07692913711071014, -0.20705237984657288, 0.277576744556427, 0.04617879167199135, -0.1122661679983139, -0.7246766686439514, -0.38954395055770874, 0.9804098606109619, -0.5807968378067017, -0.41613295674324036, 0.4365238845348358, -0.23152227699756622, 0.5074819922447205], [0.39770883321762085, -0.701627254486084, 0.3877333402633667, -0.21013036370277405, 0.46494168043136597, 0.32250043749809265, 0.36420029401779175, 0.1344114989042282, -0.35216474533081055, 0.10919930785894394, 0.08662217110395432, 0.1507604867219925, -0.7427734136581421, -0.07711657136678696, -0.18045075237751007, 0.044688258320093155], [0.39301806688308716, -0.22848902642726898, 0.2642277181148529, 0.17089417576789856, 0.03827719762921333, 0.008087767288088799, 0.007881304249167442, 0.010573661886155605, 0.5287976861000061, -0.24233965575695038, -0.19327862560749054, -0.22324790060520172, 0.001068851095624268, -0.07467072457075119, 0.07258057594299316, -0.27203455567359924], [-0.12182555347681046, -0.3905418813228607, -0.005546600092202425, -0.4576617181301117, -0.9293513894081116, 0.01771809533238411, -0.06779155135154724, -0.021930234506726265, -0.06979896873235703, 0.11799106001853943, 0.007755669765174389, 0.0776146650314331, -0.5558168888092041, 0.0015732445754110813, -0.10348572582006454, 0.4953766167163849], [0.26617854833602905, 0.5828647017478943, 0.6525598168373108, -0.6442874073982239, -0.24724529683589935, 0.9997523427009583, -0.6792724132537842, -1.0414628982543945, -0.5085075497627258, -0.4500807225704193, -0.5452187061309814, 0.2677038311958313, 0.01928587816655636, -0.6603091955184937, 0.04086936637759209, 0.27204883098602295]], "1_weights": [[0.4516508877277374, 0.5527353882789612, 0.019400622695684433, -0.9983797669410706, 0.019359629601240158, 0.13041159510612488, 0.32595816254615784, -0.046713415533304214, 0.059248778969049454, 0.6136127710342407, 0.34740129113197327, 0.47705745697021484, -1.2325788736343384, -0.6883643269538879, -0.009346731938421726, 0.012907247059047222], [-0.25377899408340454, -0.5261740684509277, 0.1996155083179474, -0.06672199815511703, -0.9211773872375488, -0.23333635926246643, -0.059044092893600464, -0.41983646154403687, -0.1766384094953537, -0.29523739218711853, -0.06792138516902924, -0.8988639712333679, 0.02872588485479355, 0.17753781378269196, -0.16922861337661743, 0.597862720489502], [-0.16445386409759521, -0.48405545949935913, -0.26290246844291687, 0.013498627580702305, 0.025446269661188126, 0.5211428999900818, -0.5477960109710693, 0.5138287544250488, 0.05126830190420151, -0.014513314701616764, 0.15404945611953735, 0.266245037317276, -0.4737037718296051, -0.38418713212013245, 0.00035945005947723985, 0.12021990865468979], [1.0223608016967773, -0.22301004827022552, -0.15637944638729095, 0.357729434967041, -0.47065469622612, 0.9163084626197815, 0.026796113699674606, -0.907058596611023, -0.4140593409538269, 0.1620320826768875, -0.6281779408454895, 0.12586680054664612, 0.8483753204345703, 0.8400553464889526, -1.217644453048706, 0.33526480197906494], [0.18738463521003723, -0.39199310541152954, 0.362559974193573, -0.03699827939271927, 0.6675267815589905, -0.40226584672927856, 0.38789355754852295, 0.21305328607559204, -0.3141499161720276, -0.018777530640363693, 0.3265038728713989, 0.13768073916435242, -0.40299728512763977, 0.0016953657614067197, 0.2260696142911911, -0.141525000333786], [0.9129785299301147, 0.5930519104003906, 0.020414603874087334, 0.031711746007204056, 0.14155346155166626, 0.8126156330108643, 0.26000338792800903, 0.45734021067619324, -0.12982918322086334, 0.16634704172611237, 0.28807851672172546, 0.49962007999420166, 0.49948328733444214, -0.06781695038080215, 0.031020527705550194, -1.529221534729004], [-0.0401003323495388, 0.25532853603363037, 0.021881965920329094, -0.1751934289932251, -0.5980273485183716, 0.05731048434972763, -0.5807668566703796, -0.07381895184516907, 0.3528927266597748, -0.3677614629268646, -0.09471206367015839, -0.4022582173347473, 0.16232483088970184, -0.029701020568609238, 0.1583695262670517, -0.16918925940990448], [0.47930994629859924, 0.29807227849960327, 0.2412032037973404, -0.0027980401646345854, 0.5011497139930725, -0.074319027364254, 0.5171876549720764, -2.8192074298858643, -0.20634634792804718, 0.12250972539186478, -0.757361114025116, -0.24171507358551025, 0.1703251153230667, -0.06522046029567719, -1.0414159297943115, 0.5198425054550171], [-0.19553382694721222, 0.06222746893763542, 0.2832551896572113, 0.04430941119790077, 0.2310275286436081, -0.009452903643250465, -1.09844970703125, 0.03905715048313141, -0.11151117831468582, 0.30499476194381714, 0.09296514838933945, 0.36009112000465393, 0.32168668508529663, 0.4248797595500946, -0.48605218529701233, 0.35058704018592834], [-0.023624179884791374, 0.026416191831231117, 0.10302819311618805, -0.09344880282878876, -0.2563866376876831, 0.03885114565491676, 0.3024621903896332, -0.3080258369445801, 0.04546113312244415, 0.27284201979637146, 0.4425660967826843, 0.19676004350185394, -0.6210108995437622, 0.2190818041563034, 0.042393703013658524, -0.16641440987586975], [-0.2283174693584442, -0.5284574031829834, -0.18821147084236145, 0.18559549748897552, 0.7184134721755981, 0.15404009819030762, 0.5611234903335571, 0.30451661348342896, -0.12990355491638184, -0.48788973689079285, 0.2696104943752289, 0.2472890466451645, 0.27455082535743713, 0.482558935880661, 0.14748522639274597, 0.48551496863365173], [0.28677624464035034, 0.42182424664497375, 0.09860483556985855, -0.4991922974586487, 0.10270068049430847, 0.007791762240231037, 0.10092763602733612, 0.29403260350227356, 0.07995814085006714, 0.2216930240392685, -0.12219557166099548, 0.1031729131937027, -0.27032092213630676, 0.10649760067462921, 0.4529784619808197, 0.2837850749492645], [-0.07628008723258972, -0.04687654599547386, 0.24783937633037567, 1.000538945198059, 0.3353785276412964, -0.08452674746513367, -0.5719324946403503, 0.3045893907546997, 0.19374841451644897, -1.0390324592590332, -0.3724798262119293, -0.2374744415283203, -0.147526353597641, 0.20316052436828613, 0.6632037162780762, 0.013342541642487049], [-0.1306660920381546, 0.09252619743347168, -0.11767089366912842, 0.44192346930503845, 0.1305602639913559, -0.1811421662569046, -0.4424135386943817, 0.693216860294342, 0.25795120000839233, -0.2271958738565445, -0.7707910537719727, -0.5218952894210815, -0.03383241221308708, 0.0015440401621162891, 0.6742985248565674, 0.31611111760139465], [-0.18013177812099457, -0.4251187741756439, 0.39785605669021606, 0.2036852389574051, -0.20529386401176453, 0.39305299520492554, -0.0520731583237648, 0.19139797985553741, 0.6577896475791931, -0.006022025365382433, 0.3844280242919922, -0.1492532342672348, 0.2663883566856384, -0.4823606014251709, 0.27186012268066406, 0.14813727140426636], [0.06921057403087616, -0.6840574145317078, -0.38936877250671387, 0.6060042381286621, 0.010943226516246796, 0.3166622221469879, -0.7208954095840454, 0.2569112777709961, 0.4204600155353546, -0.5247507095336914, 0.011719431728124619, -0.15116256475448608, -0.3794327676296234, 0.07731522619724274, 0.12142924219369888, 0.3665110468864441]], "2_weights": [[-0.24586451053619385, 0.0998983383178711, 0.3252851366996765], [0.7165750861167908, 0.6761056780815125, 0.5588981509208679], [0.16764061152935028, -0.26912081241607666, 0.20230825245380402], [-0.47144949436187744, -0.3646796643733978, -0.5160312056541443], [0.8353015780448914, 0.667097270488739, 0.5212321281433105], [0.15294116735458374, -0.5534618496894836, -0.5214112401008606], [0.97430819272995, 1.075735092163086, 1.1354717016220093], [-0.49416419863700867, -0.1679966151714325, -0.2105576992034912], [-0.27517589926719666, -0.43444931507110596, 0.2899415194988251], [0.37074580788612366, 0.40941348671913147, 0.5566307306289673], [0.4512992799282074, 0.003980661742389202, 0.25111448764801025], [0.14845167100429535, 0.5772009491920471, 0.38271331787109375], [-0.9928514361381531, -0.8912732005119324, -1.011030912399292], [-0.8245909810066223, -0.586571991443634, -0.44042861461639404], [-0.26411566138267517, -0.44100508093833923, -0.4871273636817932], [1.005724549293518, 0.19811488687992096, 0.17012718319892883]], "0_bias": [0.10467855632305145, 0.09297198802232742, 0.0706881433725357, 0.020003119483590126, -0.09911547601222992, 0.15527598559856415, 0.025839069858193398, -0.10556404292583466, -0.02602742426097393, -0.07046617567539215, -0.1288556307554245, -0.13895104825496674, 0.22415050864219666, -0.03606754168868065, -0.121766597032547, 0.21738719940185547], "1_bias": [0.12147761881351471, 0.043511707335710526, 0.027518033981323242, 0.1675848811864853, 0.1387680023908615, 0.04362279549241066, 0.1556098759174347, 0.10976984351873398, 0.12509624660015106, 0.10454154014587402, -0.05196855217218399, 0.09003683924674988, 0.13071461021900177, -0.23303405940532684, 0.053822726011276245, 0.022725017741322517], "2_bias": [-0.01776394620537758, 0.20133639872074127, -0.057036373764276505],"obj_num": 5}