{"0_weights": [[-0.415624737739563, 0.41120776534080505, -0.4967797100543976, -0.45141586661338806, 0.3266867399215698, -0.03673053905367851, -0.33540013432502747, 0.6397957801818848, -0.5083072781562805, -0.014295041561126709, 0.8260902166366577, -0.889182984828949, 0.009550525806844234, 0.16007226705551147, 0.2647802233695984, 0.4756593406200409], [-0.7299906015396118, 1.0462510585784912, 0.4616771340370178, -0.29597392678260803, -0.4147498905658722, 0.008069848641753197, 0.8096787333488464, 0.09643865376710892, 0.240326926112175, 0.6423338055610657, -0.13246765732765198, 0.0032547146547585726, -0.43632856011390686, 0.5148378610610962, 0.11581208556890488, -0.5329610109329224], [-0.3340803384780884, -0.04163471236824989, -0.5700004696846008, -0.7790094017982483, 0.1762969046831131, 0.5940917730331421, 0.32842108607292175, -0.5850938558578491, -0.24209105968475342, 0.2127431482076645, -0.5872470736503601, 0.6647469401359558, -0.12875881791114807, -0.4439660608768463, 0.48443421721458435, -0.32655927538871765], [0.045533522963523865, 0.04171206057071686, -0.08746448159217834, 0.27851563692092896, -0.4642830491065979, 0.28732365369796753, -0.4282030165195465, -0.5982145071029663, -0.7366442680358887, -0.39659246802330017, -0.3011872470378876, 0.38334986567497253, -0.28044697642326355, -0.012867064215242863, -0.279302179813385, -0.9562609195709229], [0.5763412117958069, -0.6048222184181213, 0.38482752442359924, 0.4247220456600189, -0.47293907403945923, 0.03679370880126953, -0.2972656190395355, 0.21543046832084656, 0.47221943736076355, 0.6174925565719604, 0.3186293840408325, -0.0649007186293602, 0.8155914545059204, -0.6937944889068604, -0.4444492757320404, -0.2777577042579651], [0.507196307182312, -0.7990553975105286, 0.2641599476337433, -0.9294320940971375, 0.48536714911460876, 0.7728105783462524, 0.43294790387153625, -0.8065931797027588, -0.6282859444618225, -0.4799802005290985, 0.2140600085258484, 0.07386218756437302, 0.4152494966983795, 0.6279956102371216, 0.9051445722579956, -0.461858332157135], [-0.4501740336418152, 0.7212445735931396, 0.017698705196380615, -1.1719928979873657, 0.008228883147239685, 0.3142140805721283, 0.022398948669433594, -0.5445428490638733, -1.2077536582946777, -0.4718591272830963, 0.6647051572799683, -0.35255685448646545, 0.5148775577545166, 0.2247290164232254, -0.0885050967335701, 1.1334900856018066], [0.4528665244579315, -1.1768571138381958, 0.3544487953186035, 0.25854209065437317, 0.43848204612731934, 0.21835869550704956, 0.47035905718803406, 0.3532092273235321, -0.13489487767219543, 0.4128296375274658, 0.4313156008720398, 0.10065030306577682, -0.6494297981262207, 0.14952106773853302, -0.5819633603096008, 0.17181941866874695], [0.4486573338508606, -0.030580103397369385, -0.06792694330215454, 0.2949664890766144, -0.01812254823744297, 0.05312613770365715, -0.3279535174369812, -0.054454874247312546, 0.09786326438188553, -0.3711123466491699, -0.020837409421801567, 0.00434806477278471, 0.22978903353214264, -0.18392129242420197, -0.051143746823072433, -0.11357423663139343], [-0.03757603093981743, -0.0837356224656105, 0.15372443199157715, 0.06054455041885376, -0.39925453066825867, -0.24901366233825684, 0.1795438677072525, 0.01265244372189045, 0.0542566142976284, -0.021743644028902054, -0.19510090351104736, -0.018831973895430565, -0.38183724880218506, 0.12386833876371384, -0.060870926827192307, 0.28777748346328735], [0.06636539846658707, 0.9900014400482178, 0.5046944618225098, -0.3775189220905304, 0.1531509906053543, 0.668870747089386, -0.13934294879436493, -1.3488315343856812, -1.6093839406967163, -0.02299974113702774, -0.36084282398223877, -0.5646601915359497, -0.0045448425225913525, -0.2288687825202942, -1.0480849742889404, 0.08375849574804306]], "1_weights": [[-0.14628659188747406, 0.07032527029514313, 0.012112416326999664, -0.3719097673892975, 0.34643128514289856, 0.4435485303401947, 0.5588864684104919, -0.5727421045303345, -0.3281269073486328, 0.5792075395584106, 0.6091539859771729, 0.439628928899765, -0.09861744195222855, -0.09110380709171295, -0.39289456605911255, -0.19791695475578308], [-0.9556961059570312, 0.6498345732688904, 0.6604348421096802, -0.3555092513561249, 0.019640782848000526, 0.09821276366710663, -1.290976643562317, -0.358129620552063, 0.3376915156841278, 0.1058817058801651, -0.5688238143920898, -0.7926324605941772, 0.3040216565132141, -0.3217289447784424, 0.01722530834376812, 1.0561907291412354], [0.12792766094207764, -0.20599263906478882, 0.10241769254207611, 0.4563027024269104, 0.3374382555484772, 0.15536265075206757, -0.411434531211853, -0.7703589797019958, -0.018985386937856674, 0.2014903724193573, 0.3100275695323944, 0.40767112374305725, -1.1635459661483765, -0.48771190643310547, -1.7849196195602417, -1.1733227968215942], [0.6922180652618408, -0.8814533352851868, -0.3245929181575775, 0.17215250432491302, -0.017526909708976746, 1.353109359741211, 0.11286121606826782, 0.3804417848587036, 0.3345487415790558, 0.34496209025382996, 0.3720307946205139, -0.30918624997138977, -2.6102383136749268, 0.6577587723731995, -0.8352706432342529, 0.46478071808815], [0.2253454625606537, -0.1890997439622879, 0.08704018592834473, -0.2427319884300232, 0.16627763211727142, -0.04154657572507858, -0.06542829424142838, -0.7333916425704956, 0.10218706727027893, 0.29643768072128296, 0.02979453094303608, 0.08456327021121979, -1.0338078737258911, -0.2747020125389099, -0.16448113322257996, 0.10116881132125854], [0.07649105042219162, -0.02048182487487793, -0.023017972707748413, 0.052977100014686584, -0.3513834774494171, 0.4352416694164276, -0.27888259291648865, 0.6533352136611938, -0.2492535561323166, -0.09956112504005432, 0.06253156065940857, 0.8457149863243103, 0.21713775396347046, 0.010064610280096531, 0.11547484993934631, -0.9195806980133057], [-0.23024886846542358, 0.33176031708717346, -0.28539684414863586, 0.08963416516780853, -0.7447794079780579, 0.16423380374908447, -0.5644350647926331, -0.003538674209266901, 0.27780595421791077, -0.12842701375484467, -0.20469382405281067, -0.3152824342250824, 0.1584133356809616, 0.5364661812782288, -0.08893510699272156, 0.1511300951242447], [1.195481777191162, 0.32089945673942566, 0.7736841440200806, 0.2080412060022354, 0.4438488483428955, 0.22442735731601715, 0.44681012630462646, 0.4315418601036072, 0.09434971958398819, 0.28667470812797546, -0.4460543990135193, -0.2546754777431488, 0.39406245946884155, -0.014151226729154587, 0.26386046409606934, 0.5115519762039185], [1.1371986865997314, 0.3859737515449524, 0.8436619639396667, -2.8881375789642334, -0.332825243473053, -0.9899810552597046, -0.7210882902145386, -3.192034959793091, 0.8718827366828918, 0.10137984901666641, -0.4916565716266632, -0.4721265733242035, -0.14422374963760376, 0.16791018843650818, -4.241569995880127, 1.0459973812103271], [0.17388379573822021, 0.15718288719654083, 0.045017682015895844, -0.46647021174430847, -0.0733828917145729, -0.6667757034301758, 0.3157384395599365, -0.7245587706565857, -0.15930567681789398, 0.481915682554245, 0.3120391070842743, 0.39714235067367554, -0.6177331805229187, 0.28310030698776245, -0.1115395575761795, -0.09997838735580444], [-0.5299009680747986, -0.5882540345191956, -0.26682648062705994, 0.20425039529800415, 0.6886452436447144, -0.042383428663015366, 0.28422266244888306, -0.15776871144771576, -0.3978147506713867, -0.5982340574264526, 0.5390187501907349, -0.10911832004785538, 0.27558737993240356, 0.2191377729177475, 0.2904958426952362, 0.283542662858963], [0.09121925383806229, 0.42369523644447327, 0.21048639714717865, -0.6318787932395935, -0.06391823291778564, 0.13940556347370148, -0.26157882809638977, -0.12227743119001389, 0.399539589881897, 0.1844465583562851, 0.15235808491706848, 0.11874914169311523, 0.0701722502708435, -0.784400463104248, 0.029490461573004723, 0.22663497924804688], [0.1709863841533661, 0.2893010973930359, 0.021664615720510483, 0.5327832698822021, 0.15029709041118622, -0.8597763180732727, -0.6670023798942566, 0.413905531167984, 0.4326798617839813, -1.0481475591659546, -0.3511495888233185, -0.7219957709312439, 0.23184320330619812, 0.45204827189445496, 0.1724729686975479, 0.18240046501159668], [-0.015800055116415024, 0.18736106157302856, 0.31884872913360596, 0.08762715756893158, -0.24633654952049255, -0.27397042512893677, -0.3188881576061249, 0.659233033657074, 0.40625253319740295, 0.15502634644508362, -0.6353379487991333, -0.03140600025653839, -0.023631662130355835, -0.7116040587425232, 0.5084391236305237, -0.3021923303604126], [0.2990185618400574, 0.24421800673007965, -0.028491836041212082, 0.18378908932209015, -0.07989688962697983, 0.2812250554561615, 0.3712987005710602, 0.08027011156082153, 0.6676208972930908, 0.9298647046089172, 0.06643557548522949, -0.5127199292182922, 0.18429911136627197, -3.2640573978424072, 0.07698257267475128, 0.7140923738479614], [0.5045902729034424, -1.450323462486267, 0.021587448194622993, 1.1788265705108643, 0.018385039642453194, -0.0164662953466177, 0.17405113577842712, -0.33733782172203064, 0.4164516031742096, -5.473155498504639, -0.5571943521499634, -3.2505788803100586, -0.23982349038124084, -0.9733431935310364, -0.261298805475235, 0.32999274134635925]], "2_weights": [[-0.6875652074813843, 0.1172291561961174, 0.01670273393392563], [0.43174979090690613, 0.20187456905841827, -0.10352689772844315], [-0.5947809219360352, -0.41287264227867126, 0.019970595836639404], [0.052548378705978394, -0.06820098310709, -0.8303632736206055], [0.4219454228878021, 0.7699483036994934, 0.6549620628356934], [-0.6174480319023132, -0.8609789609909058, -1.2051167488098145], [0.6749857664108276, 0.710406482219696, 1.1652389764785767], [-0.7289477586746216, -0.8891095519065857, -0.0912337526679039], [-0.5697421431541443, 0.16169649362564087, 0.5663740634918213], [0.6224954724311829, 0.8958800435066223, 1.044230341911316], [0.4285673499107361, -0.0386962927877903, 0.27397090196609497], [-0.01612483523786068, 0.8733265995979309, 1.0106459856033325], [-0.8909008502960205, -0.4876752495765686, -0.6853551864624023], [-0.8194193840026855, -1.2583768367767334, -1.822471022605896], [-0.7574285268783569, -0.8996745944023132, -0.9856914281845093], [1.4931435585021973, -0.08598046004772186, -0.3411036729812622]], "0_bias": [0.14713403582572937, 0.19810228049755096, -0.04116158187389374, 0.29419541358947754, -0.10414184629917145, 0.0494844987988472, -0.08219604939222336, 0.06406991183757782, -0.16232150793075562, -0.03297843411564827, 0.17024554312229156, -0.12840521335601807, 0.11213192343711853, 0.0037793011870235205, -0.33443406224250793, 0.062469132244586945], "1_bias": [0.06427668035030365, 0.2060953825712204, 0.16678769886493683, 0.21534423530101776, 0.21395432949066162, 0.017496690154075623, 0.15430673956871033, -0.07375559210777283, 0.11222916096448898, 0.16278548538684845, 0.13629895448684692, 0.04982784017920494, -0.06652326881885529, 0.017653891816735268, 0.1118040457367897, -0.1970013529062271], "2_bias": [0.09594438225030899, 0.022726697847247124, 0.1705007255077362],"obj_num": 3}