{"0_weights": [[-0.18264898657798767, -0.14847171306610107, 0.2797812521457672, -0.7544674873352051, 0.5485893487930298, -0.679133415222168, -0.40345093607902527, 0.4016069769859314, -0.5772539973258972, -0.1716618686914444, 0.13334062695503235, -0.221530482172966, -0.2913234829902649, 0.18999320268630981, 0.3367699384689331, -0.38934725522994995], [-0.345748633146286, -0.05643700063228607, 0.8712397813796997, -0.11262574046850204, -0.6387295722961426, 0.2950323224067688, 0.933184802532196, -0.14055730402469635, 0.24492482841014862, 0.6617608070373535, 0.16727080941200256, 0.008306864649057388, -0.24010838568210602, 1.0091817378997803, 0.924318253993988, -0.24883577227592468], [-0.43540066480636597, 0.06572327017784119, -0.10511763393878937, -0.6413710117340088, 0.3209304213523865, 0.5771453976631165, 0.49613630771636963, 0.1196334958076477, -0.5405071377754211, -0.6209496259689331, -0.5721057057380676, 0.6909066438674927, -0.33473828434944153, -0.4191492795944214, 0.4945058226585388, 0.5512152910232544], [-0.416861891746521, 0.07055732607841492, 0.09732557833194733, 0.07539504021406174, -0.31269702315330505, 0.31226205825805664, -0.6193682551383972, 0.3374291658401489, 0.041511423885822296, 0.14659380912780762, -0.7318108081817627, 0.16330154240131378, -0.011628284119069576, 0.04147505760192871, -0.32007771730422974, 0.08210744708776474], [0.7681809663772583, -0.23355993628501892, 0.09112051874399185, 0.23007459938526154, -0.38951030373573303, 0.16129599511623383, 0.013262788765132427, -0.22899936139583588, 0.6440303921699524, 0.7483636140823364, 0.5682333707809448, -0.275134414434433, 0.8333854079246521, -0.7273251414299011, 0.3003518879413605, 0.01780763640999794], [0.5450112223625183, -0.2857118844985962, -0.5946364402770996, -0.7358894944190979, 0.9825764894485474, 0.258916437625885, 0.6048604846000671, -0.3532535433769226, 0.5713238716125488, 0.08761624246835709, 0.23939190804958344, 0.6495794057846069, 0.522167444229126, 0.9287251830101013, 0.24362067878246307, -0.45952942967414856], [0.5683815479278564, 0.7003381848335266, -0.0124864736571908, 0.0758594200015068, -0.012726228684186935, 0.6324931383132935, -0.06045767292380333, 0.13212521374225616, -0.3165154457092285, -0.6668144464492798, 0.4663633108139038, -0.739798903465271, 0.387686163187027, 0.03154931589961052, 0.18583643436431885, 0.5543025732040405], [0.1756761521100998, -1.9624114036560059, 0.5602812767028809, -0.7014170289039612, -0.0637558102607727, -0.015028481371700764, 0.7179673314094543, 0.07164831459522247, 0.10985714197158813, 0.4104609191417694, 0.5078738927841187, 0.10707124322652817, -0.6006877422332764, 0.17489437758922577, -0.5079734325408936, -0.33862969279289246], [0.28813436627388, -0.3697676360607147, 0.4358438551425934, -0.0022897524759173393, 0.11326251924037933, 0.012734970077872276, 0.36962512135505676, -0.005019538104534149, 0.2901320159435272, -0.21774357557296753, 0.1902472972869873, -0.11635502427816391, 0.13967375457286835, -0.12498605996370316, 0.09161548316478729, -0.03952780365943909], [-0.10619581490755081, -0.2860701084136963, 0.12332664430141449, 0.09136836975812912, -0.4873822331428528, 0.013808617368340492, 0.024739814922213554, -0.012982584536075592, 0.34254857897758484, 0.32341721653938293, 0.2203092724084854, 0.03963058814406395, -0.4985612630844116, -0.02294737845659256, -0.3407279849052429, 0.034568190574645996], [-0.07463748008012772, 0.5588660836219788, 0.026558779180049896, -0.7387374639511108, -0.03545377030968666, 1.0185247659683228, -0.1857241690158844, -0.9190421104431152, -0.5220750570297241, -0.16733232140541077, -0.13968338072299957, 0.5595816969871521, -0.30976930260658264, -0.483359158039093, 0.10899551957845688, 0.8893268704414368]], "1_weights": [[0.41446495056152344, 0.26882603764533997, 0.6569287180900574, -0.19836799800395966, 0.197936549782753, 0.25627708435058594, 0.42564523220062256, -0.5496760606765747, -0.32382339239120483, 0.9372992515563965, 0.4739508032798767, 0.41799816489219666, -0.08092007786035538, -0.153462216258049, -0.11931484937667847, -0.03886685520410538], [-0.5044419765472412, -0.45732465386390686, 0.04517458379268646, -0.37029507756233215, -0.2858801782131195, -0.43330785632133484, -0.8024840354919434, 0.5407598614692688, -0.08435238152742386, -0.5352518558502197, -0.30114662647247314, 0.10364285856485367, -0.21453244984149933, -0.40078291296958923, -0.5621771812438965, -0.304709255695343], [0.1744566708803177, -0.23351697623729706, 0.00916354637593031, -0.3417283594608307, 0.27711033821105957, 0.3478230834007263, -0.3696957230567932, -0.5460975766181946, -0.2816142737865448, 0.14183229207992554, 0.35729458928108215, 0.4508262276649475, -0.7275276780128479, -0.9326137900352478, -0.5963871479034424, 0.2385936975479126], [0.27483853697776794, -1.603799819946289, 0.3749559223651886, 0.4177081882953644, -0.6585267186164856, 0.4784952402114868, -0.6291197538375854, -0.000520434114150703, -0.12600785493850708, -0.8013206124305725, -0.46619752049446106, -0.08410069346427917, 0.17733071744441986, 0.5811948776245117, -0.7795077562332153, -0.833126425743103], [0.3624173402786255, 0.04726472496986389, 0.008413905277848244, -0.2640947699546814, 0.38923951983451843, 0.0074329436756670475, 0.6169187426567078, -0.3544391989707947, -1.5359612703323364, 0.36108294129371643, 0.17760051786899567, 0.4091482162475586, -0.15155267715454102, -1.0513336658477783, 0.2170318067073822, 0.010953742079436779], [1.0355395078659058, 0.5941948890686035, -0.18684130907058716, 0.15154097974300385, 0.7182682156562805, 0.3174121677875519, 0.8245617747306824, 0.15103881061077118, 0.21696867048740387, 0.23320206999778748, -0.008610948920249939, 0.3421522080898285, 0.4720832407474518, 0.2732807695865631, 0.001118080341257155, 0.3203967213630676], [-0.41034677624702454, 0.718090295791626, -0.15614116191864014, 0.4543890357017517, -0.42472049593925476, -0.06389957666397095, -1.3836387395858765, 0.5121539235115051, 0.1410742849111557, -0.1174025610089302, -0.2666285037994385, -0.5315080881118774, 0.601614773273468, 0.3342815339565277, -0.09090473502874374, 0.2718445360660553], [0.026475051417946815, 0.38497859239578247, 0.2517828643321991, 0.40862178802490234, 0.39081820845603943, -1.066062569618225, 0.3180431127548218, -0.8259906768798828, -1.0883554220199585, 0.354737251996994, -0.4851672351360321, 0.1733139604330063, 0.16727404296398163, -0.22678609192371368, -0.3458484709262848, -0.07254324853420258], [0.31190070509910583, 0.029906824231147766, 0.38866132497787476, 0.40605324506759644, 0.11044953018426895, 0.08393414318561554, 0.1871442347764969, 0.6641539931297302, -0.11765067279338837, 0.5109878778457642, -0.4719386398792267, 0.5056969523429871, -0.10165730118751526, 0.3880053162574768, 0.2586515247821808, -0.1137809306383133], [0.4527794122695923, -0.24150806665420532, 0.2141600400209427, -0.15587623417377472, -0.06324536353349686, 0.06412360072135925, 0.4929315745830536, -0.8000944256782532, -0.25024741888046265, 0.43647316098213196, 0.33381718397140503, 0.558377206325531, -0.8425723314285278, 0.13867393136024475, -8.451232861261815e-05, 0.19453653693199158], [-1.2118360996246338, -0.4085065424442291, 0.18155531585216522, 0.4896664321422577, 0.19582000374794006, -0.031029637902975082, -0.6903870105743408, 0.24426166713237762, -0.4654788076877594, -0.5199271440505981, 0.5797802805900574, -0.16086681187152863, 0.3173504173755646, 0.25486502051353455, 0.25826606154441833, 0.134186789393425], [0.32991597056388855, 0.4448492228984833, -0.5204460620880127, -0.291553795337677, 0.1667834371328354, -0.32022425532341003, -0.06291237473487854, 0.48031264543533325, -0.048664044588804245, 0.3117564618587494, 0.5310305953025818, 0.09542147815227509, -0.4566279351711273, -1.1904228925704956, 0.25689151883125305, 0.4530452489852905], [0.10963784158229828, -0.734274685382843, 0.3245605528354645, 0.25647205114364624, 0.07979496568441391, -0.3024848997592926, -0.023839715868234634, -0.053493399173021317, -0.36304786801338196, -1.150890588760376, -0.0377209335565567, 0.44924890995025635, 0.039356984198093414, 0.6470765471458435, 0.22635698318481445, -0.7106624245643616], [-0.31195148825645447, 0.03805140405893326, 0.5306561589241028, 0.6933358907699585, -1.0089317560195923, 0.03145579248666763, -0.3614408075809479, 1.0585732460021973, 0.6021999716758728, -0.31926479935646057, -0.4651988446712494, -0.7690343260765076, 0.5040942430496216, 0.5262693166732788, 0.7586730718612671, 0.6413817405700684], [-0.6032284498214722, -0.13914301991462708, -0.1729593276977539, 0.18929791450500488, -0.4056459367275238, 0.5151610970497131, -0.5745862722396851, 0.21908535063266754, 0.21611769497394562, -0.5288468599319458, 0.5503193140029907, -0.2579692006111145, -0.2566725015640259, -0.581167995929718, 0.1631116271018982, -0.06228424608707428], [-0.14285355806350708, -0.6503323316574097, 1.1079764366149902, 0.8771408200263977, -1.0858104228973389, 0.3125348687171936, -0.34033527970314026, -0.054008230566978455, 0.03229508176445961, -0.30753713846206665, -0.4763738512992859, -0.15825212001800537, -0.038050565868616104, 0.36479508876800537, 0.059474341571331024, -0.8234792351722717]], "2_weights": [[0.8619734644889832, 0.8762108087539673, 1.0675044059753418], [0.47573986649513245, 0.6694349050521851, 0.6302382349967957], [-0.37629562616348267, -0.2224191576242447, 0.4633936583995819], [0.4170094430446625, -0.1931423842906952, -0.7349817752838135], [1.0356091260910034, 0.6594431400299072, 0.7719303369522095], [-0.5620669722557068, -0.5388309359550476, -0.6882338523864746], [0.6936789155006409, 0.828360378742218, 0.9121942520141602], [0.42379990220069885, 0.36230039596557617, -0.5214051008224487], [-1.476744532585144, -0.9067642092704773, 0.9615616798400879], [0.5360403060913086, 0.6519963145256042, 0.8540629148483276], [-0.24702595174312592, -0.4928547441959381, -0.26345178484916687], [0.3483836352825165, 0.9307164549827576, 0.5942022800445557], [-1.305652379989624, -0.781341016292572, -0.7549563050270081], [-1.0576014518737793, -0.8623307943344116, -0.701239287853241], [-0.2242874652147293, -0.3989500403404236, -0.6523532867431641], [0.5851553678512573, 0.2841821610927582, 0.15566228330135345]], "0_bias": [-0.13022904098033905, -0.11628302186727524, -0.1637333184480667, 0.04016207158565521, -0.018990546464920044, -0.04034973680973053, -0.15492552518844604, -0.08621141314506531, -0.1317669302225113, -0.07240237295627594, -0.02029533125460148, 0.12838712334632874, -0.07398994266986847, -0.027888843789696693, -0.1737968474626541, 0.27873799204826355], "1_bias": [-0.04799623042345047, -0.02967126853764057, -0.11316283792257309, -0.2261401265859604, 0.02470313385128975, 0.33461374044418335, 0.057399895042181015, -0.3906954228878021, -0.19365231692790985, -0.17480988800525665, 0.09617213904857635, -0.10559792816638947, -0.029778245836496353, 0.2537754774093628, 0.12676261365413666, 0.12996827065944672], "2_bias": [-0.04475576803088188, -0.02232297882437706, -0.13404685258865356],"obj_num": 4}