{"0_weights": [[-0.6947717666625977, -0.07406222820281982, 0.124526746571064, -0.5258381366729736, 0.437694251537323, -0.03876690939068794, -0.20777441561222076, 0.32359546422958374, -0.15617719292640686, 0.35539013147354126, 0.150381401181221, -0.3079513907432556, -0.6953713893890381, 0.13856208324432373, -0.4266674518585205, -0.24861805140972137], [-0.1551409363746643, 0.17151707410812378, 0.5627338290214539, 0.218593031167984, -0.2982670068740845, 0.12400050461292267, 0.7502597570419312, -0.27620160579681396, 0.4345156252384186, 0.4629884660243988, 0.08810557425022125, -0.2883763611316681, -0.47919631004333496, 0.7787231802940369, 0.19163833558559418, 0.21585290133953094], [-0.4586867690086365, -0.25605878233909607, 0.1654963344335556, -0.8169909119606018, 0.05778506398200989, 0.36987581849098206, 0.03858619183301926, -0.7748825550079346, -0.2194613814353943, 0.20902515947818756, -0.6175844669342041, 0.4468117654323578, -0.21005573868751526, -0.3007443845272064, 0.7199684977531433, -0.3284481465816498], [0.17723119258880615, -0.17958317697048187, 0.43887990713119507, 0.6815326809883118, -0.3274303376674652, 0.7716677784919739, -0.3783667981624603, 0.5856965780258179, -0.44813135266304016, 0.13932298123836517, -0.4254083037376404, -0.05407978966832161, 0.02534860372543335, 0.028664488345384598, -0.07064884901046753, -0.3698571026325226], [0.6047873497009277, -0.07128015905618668, 0.2263437807559967, 0.137187659740448, -0.3854805529117584, 0.226623997092247, -0.10391171276569366, -0.44683483242988586, 0.7717553973197937, 0.6459662318229675, 0.719592273235321, -0.029013508930802345, 0.5690144896507263, -0.5522308945655823, 0.3120642304420471, -0.512042760848999], [1.1243598461151123, 0.0758105143904686, -0.15334537625312805, -0.81174635887146, 0.38945966958999634, 0.7158871293067932, 0.3425696790218353, -0.2898246943950653, -0.03597543388605118, -0.42108920216560364, 0.4750366806983948, 0.14356930553913116, 0.7162753939628601, 0.8438346982002258, 0.4531220495700836, -0.5731362104415894], [-0.37334877252578735, 0.9314258694648743, -0.17299087345600128, -0.13800521194934845, 0.02679709531366825, 0.33338919281959534, -0.2691391110420227, 0.027462542057037354, -0.9127432107925415, -0.40468287467956543, 0.3297380805015564, -0.9781028032302856, 0.5575320720672607, -0.27598223090171814, 0.02772865630686283, 0.6723257303237915], [0.6272401809692383, -1.0208102464675903, 0.12457431852817535, 0.7519221305847168, 0.731657087802887, -0.01829942688345909, 0.7500541806221008, 0.6142134070396423, 0.2945028841495514, 0.1604001224040985, 0.8646718263626099, 0.25548046827316284, -0.6836236119270325, 0.1958690881729126, -0.06479140371084213, 0.4800906479358673], [0.28711336851119995, -0.6507483124732971, 0.07888727635145187, -0.20608891546726227, 0.0983019545674324, 0.05872881039977074, 0.3003775179386139, -0.08468154817819595, 0.5073409080505371, -0.4655778706073761, -0.1519874781370163, -0.7948521971702576, -0.21647636592388153, -0.2460535615682602, -0.12730887532234192, -0.3606612980365753], [-0.6048211455345154, -0.42382898926734924, -0.24045182764530182, -0.43830567598342896, -0.7164983153343201, -0.46699053049087524, 0.014240946620702744, 0.10682159662246704, 0.1260792315006256, -0.41177132725715637, 0.08155008405447006, 0.26230308413505554, -0.8438161015510559, 0.35521361231803894, -0.09500034153461456, 0.31784817576408386], [0.11974716186523438, -0.20932848751544952, 1.216720461845398, -1.0033800601959229, -0.41735437512397766, 0.1648912876844406, -0.7140557765960693, -0.7755223512649536, -0.14240917563438416, 0.1850249171257019, -0.8798806667327881, 1.1085983514785767, -0.3681679964065552, -0.7950582504272461, 0.5834711194038391, 0.0740215852856636]], "1_weights": [[0.24796760082244873, 0.43374207615852356, 0.44959595799446106, -0.11366259306669235, -0.03147830814123154, 0.3639962673187256, 0.5007072687149048, -0.10530301183462143, -0.2784457504749298, 0.8205038905143738, 0.5356106758117676, 0.488736629486084, 0.41297659277915955, 0.08281144499778748, -1.3778393268585205, -0.198823481798172], [-1.1844406127929688, 0.26251140236854553, 0.36400800943374634, -0.22185014188289642, 0.04898352175951004, -0.08859854191541672, -0.5293353199958801, -0.009595840238034725, -0.015797216445207596, -0.6067280173301697, 0.07430706918239594, -0.1375432014465332, 0.5619115233421326, -0.022451462224125862, 0.32810133695602417, -0.12681876122951508], [0.7131947875022888, -0.24885699152946472, -0.14974285662174225, -0.12304988503456116, -0.39608335494995117, 0.14679227769374847, -0.550037145614624, 0.5025420188903809, -0.06949349492788315, 0.8192647695541382, 0.8499677181243896, 0.7731848955154419, -0.23252460360527039, -0.228765606880188, 0.5238980054855347, 0.2751583755016327], [-1.2061452865600586, 0.254082590341568, -0.17432346940040588, 0.6339914798736572, 0.1764174997806549, 0.4638780355453491, -0.06272980570793152, 0.05356353893876076, -0.2853982150554657, -1.5499249696731567, -1.7433780431747437, -1.9671974182128906, 0.058589085936546326, 0.5565282702445984, -0.5973328948020935, 0.6012649536132812], [-0.6871732473373413, -0.2690216898918152, 0.007839660160243511, -0.010999074205756187, 0.40474551916122437, -0.3776785135269165, 0.05406211316585541, 0.27688395977020264, 0.1758853644132614, -0.5270838141441345, -0.33187463879585266, -0.6626759171485901, 0.08920565247535706, -0.16952529549598694, 0.4506414532661438, -0.4643445909023285], [0.6060272455215454, 0.14530974626541138, -0.28299081325531006, 0.020183371379971504, -0.18101274967193604, 0.31512880325317383, 0.18514230847358704, 0.23951371014118195, 0.47256800532341003, 0.22504357993602753, 0.2903708219528198, 0.5466154217720032, 0.3872136175632477, 0.0072041722014546394, -0.1744987815618515, -0.2515391409397125], [-0.1963912695646286, 0.24670688807964325, -0.08591745048761368, 0.3035129904747009, -0.5055477023124695, 0.2135590761899948, -0.21289849281311035, -0.03803061321377754, 0.21958468854427338, -0.3612729609012604, -0.4162449538707733, -0.5042691230773926, 0.31898751854896545, 0.23955129086971283, 0.2050638496875763, 0.1989939957857132], [-2.45182728767395, 0.791692852973938, 0.10013584047555923, 0.18561741709709167, 0.5480231046676636, -0.4250899851322174, 0.5830622911453247, -0.4290199875831604, -1.7962881326675415, -1.2046151161193848, -1.2833276987075806, -1.088240623474121, 0.05353405326604843, -0.446703165769577, -0.5728365182876587, 0.34081757068634033], [-0.25894343852996826, 0.10590434074401855, 0.6182927489280701, 0.4581482410430908, 0.02860802412033081, 0.29009032249450684, -0.3755309581756592, 0.42524704337120056, -0.04997402802109718, -0.22657543420791626, -0.5011648535728455, -0.3323940932750702, 0.20288801193237305, 0.45693254470825195, -0.14319172501564026, 0.028259770944714546], [0.35436251759529114, 0.14845873415470123, -0.13007239997386932, -0.04110060632228851, 0.11131775379180908, -0.3550674319267273, 0.29200658202171326, -0.4834921360015869, -0.1689026653766632, 0.5374724268913269, 0.4854639172554016, 0.42346563935279846, -0.3647322654724121, 0.17776736617088318, 0.09775400906801224, -0.2702069878578186], [-0.7269429564476013, -0.7581474184989929, 0.534368634223938, 0.02718547359108925, 0.4398486614227295, 0.18940480053424835, 0.5145040154457092, -0.02833680808544159, -0.5731096863746643, -0.6593629121780396, 0.03996264562010765, -0.162148579955101, 0.3699682056903839, 0.7740707397460938, 0.3610776960849762, 0.020127395167946815], [1.246565580368042, -0.7427392601966858, -0.3276991546154022, -0.44921502470970154, -0.12863557040691376, -0.12130340933799744, 0.43054768443107605, -0.4653763771057129, -0.5283875465393066, 1.9605493545532227, 1.1143161058425903, 0.900626003742218, -0.245804101228714, -0.5476426482200623, -0.46754634380340576, 0.41768449544906616], [-1.6136337518692017, -0.1898668110370636, 0.17028731107711792, 0.4881671369075775, 0.7939545512199402, 0.13777907192707062, -0.7228950262069702, 0.2474735528230667, 0.13561765849590302, -1.8591614961624146, -0.3492366373538971, -0.5235376954078674, 0.36435723304748535, 0.42676764726638794, -0.12820735573768616, 0.19968120753765106], [-0.15304191410541534, -0.0055374084040522575, 0.08143534511327744, 0.6598876714706421, -0.1988324522972107, -0.29275357723236084, 0.006505958735942841, 0.996216893196106, 1.021824836730957, -0.8451375365257263, -1.273281455039978, -0.9086312651634216, 0.19698023796081543, -0.13981547951698303, 0.6092756986618042, 0.007489955052733421], [-0.006060609128326178, -0.3115989565849304, 0.1527203768491745, 0.21022695302963257, -0.18373553454875946, 0.36087387800216675, -0.9740760922431946, 0.5154374837875366, 0.6160790920257568, 0.48162856698036194, 0.30572381615638733, 0.03066202998161316, 0.28769147396087646, -0.23013849556446075, 0.4171755015850067, -0.1290876567363739], [-0.19083711504936218, 0.5054457783699036, 0.41815385222435, 0.7119936943054199, -0.871882975101471, 0.8698811531066895, -0.5819317102432251, 0.09222420305013657, -0.1557752788066864, -0.8684545755386353, -0.8179256916046143, -0.7737751603126526, 0.06298096477985382, 0.2740979492664337, 0.07897589355707169, -0.24985837936401367]], "2_weights": [[2.314742088317871, 2.4779884815216064, 2.6339967250823975], [0.6573660969734192, 0.1406444013118744, -0.3969326317310333], [-0.6078203320503235, -0.5079354643821716, -0.3617525100708008], [-0.1877356618642807, 0.024730674922466278, -0.6356431245803833], [0.6618665456771851, 0.5465472340583801, 0.5069075226783752], [-0.3896685242652893, -0.6066126227378845, -0.7402604222297668], [0.6322928071022034, 0.764998733997345, 1.2067182064056396], [-0.5303905606269836, -0.0873643308877945, -0.6521797180175781], [-0.1303490847349167, -0.6101061701774597, 0.51032555103302], [5.362460613250732, 4.961086750030518, 4.993502616882324], [1.3659639358520508, 1.416106939315796, 1.3966248035430908], [2.328200101852417, 2.3801536560058594, 2.3692383766174316], [-0.5304021835327148, -0.3076559007167816, -0.662030816078186], [-0.7430737614631653, -0.8915552496910095, -0.07783760130405426], [-0.7797343730926514, -0.6704056262969971, -1.1135836839675903], [0.43668657541275024, -0.13246817886829376, 0.17335091531276703]], "0_bias": [0.09374845027923584, -0.001913368352688849, -0.10812211036682129, 0.4310528039932251, 0.27042973041534424, -0.01603388600051403, -0.025168627500534058, 0.3482438623905182, 0.140890970826149, -0.010434750467538834, 0.12962718307971954, -0.14176255464553833, 0.03410038724541664, 0.07973265647888184, -0.15010669827461243, -0.032777152955532074], "1_bias": [0.21404360234737396, -0.018463000655174255, -0.3431009352207184, -0.2632926404476166, 0.32369542121887207, -0.19663794338703156, 0.21287579834461212, -0.5510261654853821, -0.18243534862995148, -0.055259089916944504, 0.1347656399011612, 0.05354351922869682, -0.2706882953643799, -0.18395592272281647, -0.05606909096240997, 0.2699735760688782], "2_bias": [0.2642703056335449, 0.23085370659828186, 0.26569193601608276],"obj_num": 1}