{"0_weights": [[0.2147613763809204, 0.3453221321105957, 0.030258001759648323, -0.09382327646017075, 0.06460381299257278, 0.052528247237205505, -0.367462158203125, 0.6770945191383362, -0.46348246932029724, -0.2646486163139343, 0.17895229160785675, 0.3508666753768921, -1.1992928981781006, 0.3984134793281555, 0.19815191626548767, -0.49673226475715637], [-0.13113577663898468, 0.1849793791770935, 1.2894972562789917, -0.09627586603164673, -0.5802101492881775, 0.3117247521877289, 0.8467381000518799, -0.16957563161849976, 0.3951953649520874, 0.26440778374671936, -0.520889937877655, -0.45534253120422363, -0.4606983959674835, 0.7106978297233582, 0.5589268803596497, -0.43303754925727844], [-0.5736358165740967, -0.0941941887140274, -0.01725945994257927, -0.7604498267173767, 0.42075175046920776, 0.1198154091835022, 0.4177209138870239, -0.5796818137168884, -0.03864448890089989, 0.08114759624004364, -0.596590518951416, 0.7783974409103394, 0.40655478835105896, -0.19986321032047272, 0.5691977739334106, -0.19586792588233948], [-0.1874307543039322, 0.17606620490550995, -0.48455968499183655, 0.11645294725894928, -0.2134799212217331, 1.4416108131408691, -0.22219978272914886, 0.49291425943374634, 0.2103271782398224, -0.021629681810736656, 0.017863621935248375, -0.1393890678882599, 0.7250676155090332, 0.2168745994567871, -0.022221088409423828, -0.4131609797477722], [0.36517414450645447, 0.5379472374916077, 0.3078833520412445, 0.04723809286952019, -0.5318661332130432, -0.07299251854419708, -0.316651850938797, -0.43315741419792175, 0.6170852780342102, 0.7825917601585388, 0.7465960383415222, 0.20283575356006622, 0.1859787404537201, -0.5321544408798218, 0.22656936943531036, -0.5076501369476318], [0.7538182735443115, -0.41481953859329224, 0.01281614787876606, -0.26564908027648926, 0.5660304427146912, 0.4608086347579956, 0.029491355642676353, -0.47488680481910706, 0.03482499718666077, -0.04237571731209755, 0.5363377928733826, 0.35862237215042114, 0.18536536395549774, 0.8412296772003174, 0.564240038394928, -0.28150951862335205], [0.008551554754376411, 0.1941148042678833, -0.4133639931678772, -0.28716835379600525, -0.2684181034564972, 0.4034629762172699, -0.1675533652305603, 0.07078616321086884, -1.3671475648880005, -0.554262101650238, 0.39191320538520813, -0.44796040654182434, 0.016506332904100418, 0.24780987203121185, -0.2388545572757721, 0.32966282963752747], [0.46913889050483704, -1.4782904386520386, 0.3312937021255493, 0.324886292219162, 0.08859627693891525, 0.30350983142852783, 0.8574829697608948, 0.48448073863983154, -0.6782169342041016, 0.5703033208847046, 0.4433634877204895, 0.1003880724310875, -0.3072534203529358, 0.16111117601394653, -0.1711723506450653, -0.47341859340667725], [0.19083568453788757, -0.43622180819511414, 0.1475944221019745, 0.006530564744025469, -0.3339097201824188, -0.260841429233551, 0.4585551917552948, 0.00302389869466424, 0.38989120721817017, -0.03551368787884712, -0.08907902240753174, -0.3253365457057953, 0.03252227604389191, -0.2002902626991272, 0.26212355494499207, -0.1740696281194687], [0.4004158675670624, -0.5759609937667847, -0.05898482725024223, -0.03886596858501434, -0.24372954666614532, 0.08639608323574066, 0.2266828864812851, 0.022174101322889328, -0.066739022731781, 0.3443014323711395, -0.11395163089036942, 0.22098587453365326, -0.03897811472415924, 0.25400257110595703, 0.15869222581386566, 0.5336293578147888], [0.21470004320144653, 0.44576677680015564, -0.06917906552553177, -0.7025266289710999, -0.037322741001844406, 0.9250400066375732, 0.2666173577308655, -0.9498540163040161, -0.6789215207099915, -0.027912352234125137, -0.4993181824684143, 0.06389199942350388, 1.455166220664978, -0.09301530569791794, -0.7733420133590698, -0.26572415232658386]], "1_weights": [[0.06867507100105286, 0.3110690414905548, 0.03998515009880066, 0.029846269637346268, 0.40079447627067566, 0.571887195110321, 0.5510866045951843, -0.36396387219429016, -0.47482332587242126, 0.6794288754463196, 0.4095715880393982, 0.3376261293888092, 0.06918112188577652, -0.24319688975811005, -0.03738365322351456, 0.01143560465425253], [-0.7970603704452515, 0.9527326226234436, -0.03392321616411209, 0.37966158986091614, -0.3112810254096985, 0.6175227165222168, -3.3284313678741455, -0.7939015626907349, 1.0578120946884155, -2.624786615371704, -2.0481667518615723, 0.05131452903151512, 0.3668919503688812, -0.3218920826911926, 0.49099066853523254, -0.9367931485176086], [0.5067775249481201, -0.25169837474823, -0.06983822584152222, -0.1609681397676468, -0.02806761860847473, 0.5325893759727478, -0.40510961413383484, 0.07693938165903091, 0.24808967113494873, 0.12534953653812408, 0.22141675651073456, 0.020436551421880722, -0.8311854004859924, -0.4035772979259491, 0.29778531193733215, -0.010442784056067467], [-0.15284129977226257, 0.1509295105934143, 0.3534049689769745, 0.8739646077156067, -0.5516161322593689, 0.6660387516021729, -0.636759340763092, 0.486366331577301, -0.7071276903152466, -0.37945735454559326, -0.9669517278671265, 0.4224349558353424, 0.27925243973731995, 0.330721378326416, 0.014478539116680622, -0.505103349685669], [0.39362287521362305, 0.31013062596321106, 0.19689834117889404, -0.3025978207588196, 0.08319144695997238, -0.7580971717834473, 0.1181461438536644, 0.44892269372940063, 0.10446586459875107, 0.5546281337738037, 0.0017680268501862884, -0.07066016644239426, -0.997485339641571, -0.2786364257335663, 0.1712733805179596, 0.21598166227340698], [0.4985446333885193, 0.5994529128074646, -0.42000311613082886, 0.2848244607448578, 0.019916299730539322, 0.5196410417556763, -0.06663219630718231, 0.4524994194507599, 0.11740171909332275, -0.42365023493766785, 0.24149177968502045, 0.8549305200576782, 0.6016089916229248, -0.09279599040746689, -0.30206501483917236, -0.7737388014793396], [-0.47525230050086975, 0.5697011351585388, -0.5907645225524902, -0.08134124428033829, -0.14550386369228363, 0.3870588541030884, -0.05682813376188278, -0.5998309850692749, -0.18759319186210632, -0.792624831199646, -0.366837739944458, 0.46169453859329224, 0.25221580266952515, -0.0453244149684906, 0.17942078411579132, -0.5245066285133362], [1.213191270828247, 0.4536066949367523, 0.33199015259742737, 0.6923348307609558, 0.6162490248680115, -0.3575952351093292, 0.9733652472496033, -0.31305167078971863, 0.31946703791618347, 0.934631884098053, 0.5120259523391724, -0.34845253825187683, 0.7377548813819885, -0.13671238720417023, -0.6206806898117065, 0.7311211824417114], [0.9723656177520752, -0.299824595451355, 0.23398469388484955, -0.3818787634372711, -0.0408807136118412, -0.5710428357124329, -0.03595731779932976, 1.3091248273849487, -0.008151404559612274, 0.5036258101463318, -0.1272388994693756, -0.5918461084365845, -1.283504843711853, 0.17017444968223572, -0.8751435875892639, 0.49600669741630554], [-0.21703268587589264, -0.24265970289707184, -0.2876649498939514, -0.2142724245786667, -0.449601948261261, 0.17586393654346466, 0.06943772733211517, -0.6649714708328247, 0.0704827755689621, -0.08207450807094574, 0.3138081133365631, 0.08205416798591614, -0.8757379651069641, -0.039175063371658325, -0.21314901113510132, -0.14185850322246552], [-0.3451971709728241, -0.4660148322582245, -0.05087343230843544, 0.6698789596557617, 0.7628176808357239, 0.060303203761577606, 0.5576919317245483, 0.030956756323575974, -0.28541165590286255, -0.18851999938488007, 0.3579229712486267, -0.1617867797613144, 0.31155043840408325, 0.18712195754051208, 0.24221476912498474, 0.09010504931211472], [-0.3124065399169922, 0.5560573935508728, 0.13407737016677856, -0.7311078310012817, 0.12527011334896088, -0.10833973437547684, -0.13219867646694183, -0.18477097153663635, -0.09411496669054031, 0.20677508413791656, -0.11445914208889008, 0.06777042150497437, -0.6472707986831665, -0.33331143856048584, 0.2322823852300644, 0.28593653440475464], [0.17452555894851685, -0.13137425482273102, -1.6912987232208252, -1.2160230875015259, 0.07226095348596573, -0.9014962911605835, -0.7251672744750977, -0.003975509665906429, -0.14928531646728516, 0.08835099637508392, -0.2755233943462372, -0.15277431905269623, -0.8814248442649841, 0.22992227971553802, -0.04702948406338692, -3.459843873977661], [0.020911797881126404, -0.2626686692237854, 0.21700769662857056, 0.4424484968185425, 0.044263023883104324, -0.06838470697402954, -0.27605003118515015, 0.37844541668891907, 0.6478925347328186, -0.6224643588066101, -1.280269742012024, -0.6329524517059326, 0.1626945436000824, -0.22455254197120667, 0.6356803774833679, 0.1644747108221054], [-0.03422456979751587, 0.09975855052471161, 0.7684870958328247, 0.19994567334651947, 0.08636406809091568, 0.23896478116512299, -0.03300877660512924, 0.13448423147201538, 0.7789974212646484, 0.23681087791919708, 0.18346358835697174, -0.04035269096493721, 0.010413724929094315, -0.44233110547065735, 0.14034467935562134, 0.26332154870033264], [-0.6863163709640503, 0.5254371166229248, 0.24383863806724548, 1.1835523843765259, -0.4902922809123993, 0.4325180649757385, -2.0787761211395264, 0.23755042254924774, 0.29997730255126953, -1.6288193464279175, -0.10095394402742386, 0.060149185359478, 0.01731869764626026, -0.3574826419353485, 0.17662781476974487, -1.611025094985962]], "2_weights": [[-0.09974738210439682, 0.4489603042602539, 0.6686844825744629], [0.5654686689376831, 0.4543326199054718, 0.5678052306175232], [-1.1247562170028687, -0.4535816013813019, -0.48127999901771545], [-0.238012433052063, -0.6847699284553528, -0.6148868799209595], [0.6489003300666809, 0.36396440863609314, 0.26255613565444946], [-0.33241185545921326, -0.6848821043968201, -0.9731054306030273], [0.7791541814804077, 1.0046299695968628, 0.8586759567260742], [-0.3360648453235626, -0.5762754082679749, -0.8857227563858032], [-0.1537119597196579, 0.16834503412246704, 0.766071617603302], [0.20643167197704315, 0.7341344952583313, 1.0665441751480103], [0.6891863942146301, 0.42065370082855225, 0.8998841047286987], [-0.3274216949939728, 0.49847060441970825, 0.7321088910102844], [-0.9815140962600708, -0.48439905047416687, -1.415924310684204], [-0.20108868181705475, -0.24193011224269867, 0.03410741686820984], [-0.5004664063453674, -0.48871147632598877, -0.5163278579711914], [1.5929896831512451, 0.04802838712930679, -0.1475127637386322]], "0_bias": [0.09704849869012833, -0.19546110928058624, 0.10454388707876205, -0.0006586530362255871, 0.20026704668998718, -0.14719459414482117, -0.15165424346923828, 0.003085421398282051, 0.1844545155763626, -0.049276143312454224, 0.10752498358488083, -0.09720343351364136, 0.26935064792633057, -0.021042030304670334, -0.0008744409424252808, -0.08220846951007843], "1_bias": [-0.010222654789686203, 0.05432561784982681, 0.23153004050254822, 0.005679492373019457, 0.17106124758720398, -0.11766229569911957, 0.1325145810842514, -0.002582256216555834, -0.15576227009296417, 0.059704557061195374, -0.21071778237819672, 0.15118549764156342, 0.0034099514596164227, -0.11972838640213013, 0.1443854570388794, -0.2831963300704956], "2_bias": [0.14303699135780334, -0.13022267818450928, -0.37622201442718506],"obj_num": 3}