{"0_weights": [[-0.014165357686579227, -0.801434338092804, -0.3122135400772095, -0.4734308421611786, 0.07723364979028702, -0.4065292477607727, -0.13474375009536743, 0.6156632304191589, -0.5651251077651978, -0.2590183615684509, 0.16178937256336212, -0.3324691653251648, -0.3455253541469574, -0.3543860614299774, 0.14974087476730347, -0.5914446115493774], [-0.8317346572875977, -0.27372485399246216, -0.15132200717926025, 0.07190431654453278, -0.4791313111782074, -0.02409328892827034, 0.7407986521720886, -0.41506338119506836, 0.6812087893486023, 0.5397282838821411, 0.2044493407011032, -0.6307309865951538, -0.08791422843933105, 0.6773914694786072, 0.19887124001979828, -0.28469181060791016], [-0.47985324263572693, -0.15587551891803741, -0.32972556352615356, -0.9742948412895203, 0.020298579707741737, 0.40665245056152344, 0.10794799029827118, -0.08057054132223129, -0.07619354128837585, 0.36696285009384155, -0.8335592746734619, 0.6276845932006836, -0.0790923610329628, 0.05489327013492584, 0.8881712555885315, 0.4049918055534363], [-0.15696857869625092, 0.0655948594212532, 0.09626573324203491, 0.4826076030731201, -0.3824256658554077, 0.35954341292381287, -0.3423537015914917, 0.4781297445297241, -0.20041851699352264, -0.10179182142019272, -0.6623378992080688, 0.2621896266937256, 0.17179730534553528, -0.35142260789871216, -0.3059347867965698, -0.28836265206336975], [0.44240665435791016, 0.13323955237865448, 0.23666150867938995, -0.15164874494075775, -0.7987760901451111, 0.31791090965270996, -0.1322033703327179, -0.11205212771892548, 0.3747958540916443, 0.8332812786102295, 0.5951637625694275, 0.2183711677789688, 0.6721714735031128, -0.4363701343536377, 0.10309312492609024, -0.023345232009887695], [0.7682473063468933, -0.17816376686096191, 0.035813767462968826, -0.5346391797065735, 0.42803555727005005, 0.6067660450935364, 0.392469197511673, -0.8582680225372314, 0.28326332569122314, -0.1367373913526535, 0.12785495817661285, 0.28836923837661743, 0.13935914635658264, 0.54768306016922, 0.2403848022222519, -0.4186941385269165], [-0.2960711717605591, 0.6515326499938965, 0.007525592111051083, -0.1500053107738495, -0.1937694251537323, 0.18009763956069946, -0.060574837028980255, 0.3715222477912903, -0.679815948009491, -0.5902957916259766, 0.35721781849861145, -0.6061486601829529, 0.25189417600631714, 0.21532277762889862, -0.08853083103895187, 0.5903932452201843], [0.2893509864807129, -0.5233582258224487, 0.49226757884025574, 0.25547030568122864, 0.4479941129684448, -0.2073502391576767, 0.4750445783138275, 0.16994287073612213, -0.01791653037071228, 0.0274275541305542, 0.5127567052841187, 0.41520172357559204, -0.7562382817268372, 0.00930019747465849, 0.12269328534603119, 0.2468986064195633], [0.13662736117839813, -0.48611247539520264, 0.05637191981077194, 0.026902781799435616, 0.025642795488238335, -0.07991420477628708, -0.03232172131538391, 0.33954980969429016, 0.19581128656864166, -0.5119895339012146, -0.0693795457482338, -0.5000255703926086, -0.14175407588481903, -0.2023075371980667, -0.16469411551952362, -0.143526092171669], [0.10101255774497986, -0.639275848865509, -0.1098969355225563, -0.04108520224690437, -0.6516876816749573, -0.13076156377792358, -0.08807369321584702, 0.08820505440235138, -0.1182621568441391, 0.10347573459148407, 0.055969689041376114, 0.13042178750038147, -0.1908458173274994, 0.27969831228256226, -0.2836971879005432, 0.42063263058662415], [-0.26517587900161743, 0.10791358351707458, -0.6591997742652893, -1.6774396896362305, -0.19054974615573883, 0.5655685067176819, -0.19824759662151337, -0.3552539646625519, -0.976292610168457, 0.2039029598236084, -0.2721392810344696, -0.000675239774864167, -0.08477979153394699, -0.06709214299917221, 0.35275334119796753, 0.03133275732398033]], "1_weights": [[0.5500572323799133, 0.14802773296833038, 0.48529258370399475, 0.13477642834186554, -0.0703752413392067, 0.4249713718891144, 0.4711379110813141, 0.027144674211740494, 0.25655609369277954, 0.46063128113746643, 0.8874223828315735, 0.34244826436042786, 0.40290912985801697, 0.03865263611078262, -0.15370583534240723, -0.16778114438056946], [-0.5295058488845825, 0.9043856859207153, 0.8992846012115479, -0.18304486572742462, 0.0018732526805251837, -0.5566098690032959, 1.1517438888549805, -0.9627892971038818, 0.1671714186668396, 1.1092153787612915, 0.17790430784225464, -0.17018821835517883, -0.10076910257339478, -0.27984029054641724, -0.5908567309379578, -0.6209396123886108], [-0.49923083186149597, -0.20391234755516052, -0.11983237415552139, 0.31675708293914795, -0.0011285750661045313, 0.48728156089782715, -0.2633841931819916, 0.2656435966491699, 0.06584058701992035, 0.4559924602508545, 0.5589646697044373, 0.19448493421077728, -0.2027977854013443, -0.01740729808807373, -0.30841073393821716, 0.49877259135246277], [0.7699747681617737, -0.07648605853319168, -1.0369592905044556, 0.571135401725769, -0.4603809118270874, 0.46888893842697144, -0.5824665427207947, 0.0239427350461483, 0.06965957581996918, -0.528362512588501, -2.913332223892212, -1.2693133354187012, 0.2613540291786194, 0.3597097098827362, 0.3192843198776245, 0.9438043236732483], [-0.3319971263408661, -0.15497863292694092, -0.008005423471331596, -0.8988961577415466, 0.6777154207229614, -0.5108201503753662, 0.44942203164100647, 0.10260505229234695, 0.06802520900964737, 0.5162487030029297, -0.30487796664237976, 0.22672070562839508, -0.2497626096010208, -1.2024644613265991, -0.10538133978843689, -0.6443511247634888], [-0.029001332819461823, 0.09782347083091736, -0.4205693006515503, 0.16018307209014893, -0.29438403248786926, 0.47564393281936646, 0.07928735017776489, 0.6997448205947876, 0.11239594221115112, -0.1321839690208435, 0.002265660325065255, 0.4762399196624756, 0.25787320733070374, 0.31826817989349365, -0.09654760360717773, -0.43074095249176025], [0.16153042018413544, 0.493043452501297, 0.163685142993927, -0.14542102813720703, -0.2320239096879959, 0.07091355323791504, -0.2447042465209961, -0.403812974691391, 0.466355562210083, -0.2403862625360489, -0.17938104271888733, -0.15633733570575714, 0.11005643755197525, 0.2931394577026367, 0.12005669623613358, -0.013734129257500172], [0.406241774559021, 0.7857220768928528, 0.5106014609336853, 0.3500165045261383, 0.4340425431728363, -0.45652106404304504, 0.319566011428833, -0.8378379940986633, 0.37122005224227905, 0.27372798323631287, 0.035862259566783905, 0.089811310172081, -0.01988481916487217, -0.6078345775604248, -0.03587605059146881, 0.05678420513868332], [0.10095237195491791, 0.14700740575790405, 0.5924122929573059, 0.2286870926618576, 0.4494248926639557, -0.32567283511161804, 0.2818743586540222, -0.19003358483314514, 0.09779613465070724, 0.20390476286411285, -0.21549862623214722, -0.09856041520833969, -0.06711581349372864, 0.4108605682849884, -0.7825967073440552, 0.2995406985282898], [0.9204033017158508, 0.5677950382232666, -0.16779381036758423, 0.39877915382385254, 0.3159998655319214, -0.26801934838294983, 0.12113598734140396, -0.49863481521606445, 0.13858231902122498, 0.8597537279129028, 0.4105416238307953, 0.16292370855808258, -0.8272004723548889, -0.41460275650024414, 0.031644005328416824, -0.13947860896587372], [-0.3933453857898712, -0.7697449326515198, 0.11259285360574722, 0.1292295753955841, 0.6194241642951965, 0.032135237008333206, 0.06881684809923172, -0.00027048864285461605, -1.1004259586334229, -0.4745267927646637, 0.4590526223182678, -0.10916436463594437, 0.2031044065952301, 0.5227404832839966, 0.15882180631160736, 0.2865121364593506], [0.18222784996032715, 0.38534051179885864, -0.20366397500038147, -0.646494448184967, 0.426461398601532, -0.17147958278656006, -0.02706107497215271, -0.029615728184580803, 0.02456805109977722, 0.3728499114513397, 0.19837221503257751, 0.5549677610397339, -0.02917470596730709, -0.46830660104751587, 0.2986801564693451, 0.5086451172828674], [0.6453198194503784, 0.02240084297955036, -0.15671883523464203, 0.15613357722759247, -0.07037235051393509, -0.18803495168685913, -0.339336633682251, 0.37082502245903015, 0.4645540118217468, -0.46499258279800415, -0.006452047731727362, 0.12784434854984283, 0.27386951446533203, 0.2679905891418457, 0.15767398476600647, -0.7299123406410217], [0.1572059690952301, -0.287168949842453, 0.3536820411682129, 0.09949342906475067, -0.14916586875915527, 0.0101460637524724, -0.6644112467765808, 0.4442320168018341, 0.2175300270318985, -0.17465516924858093, -0.26909729838371277, -0.14228960871696472, 0.018874995410442352, 0.11688312143087387, 0.5189113020896912, -0.1472359150648117], [0.1605348140001297, -0.6192790865898132, 0.22229786217212677, 0.4801650643348694, -0.11137666553258896, 0.4623667895793915, -0.11799439042806625, 0.42889249324798584, -0.27222535014152527, 0.1600678414106369, 0.05809449777007103, -0.42130088806152344, 0.20311596989631653, -0.11879284679889679, 0.5059619545936584, -0.04478880390524864], [-0.21439428627490997, -0.2792186439037323, 0.5217515230178833, -0.20948193967342377, -0.5659199953079224, 0.2620927393436432, 0.11733847111463547, -0.24160175025463104, -0.028061602264642715, -0.03353281691670418, -0.39078935980796814, -1.7940384149551392, -0.16965769231319427, -0.1331697702407837, 0.1830470710992813, 0.1313982903957367]], "2_weights": [[-0.35092538595199585, 0.0916300043463707, 0.10732992738485336], [0.48958271741867065, 0.4686865508556366, 0.48682141304016113], [-1.1519609689712524, -1.0955979824066162, -1.0839715003967285], [-0.030685225501656532, -0.34213951230049133, -0.5567012429237366], [0.798900306224823, 0.3072734773159027, 0.2860894501209259], [-0.3013959527015686, -0.49258604645729065, -0.6153170466423035], [0.5375686883926392, 0.7108204960823059, 0.7323254346847534], [-0.46545833349227905, -0.3803075850009918, -0.27749377489089966], [0.025265883654356003, -0.14465567469596863, 0.6730718612670898], [0.3881661295890808, 0.5044614672660828, 0.3520262837409973], [1.1992850303649902, 0.6632180213928223, 0.6064369678497314], [0.27441996335983276, 0.7131275534629822, 0.8827840089797974], [-0.4595629572868347, -0.4015515446662903, -0.4608380198478699], [-0.6484172344207764, -0.6209560036659241, -0.36416172981262207], [-0.2879156172275543, -0.5243163704872131, -0.44333305954933167], [0.9398989081382751, 0.6653301119804382, 0.6952576637268066]], "0_bias": [0.13477784395217896, -0.16534806787967682, -0.11820506304502487, 0.1860007792711258, 0.12673582136631012, -0.08012860268354416, 0.06700421869754791, -0.03582969307899475, -0.07871884852647781, -0.10224118828773499, 0.11418765783309937, 0.05072667822241783, 0.27375414967536926, 0.04075269401073456, 0.021998442709445953, 0.09305202960968018], "1_bias": [0.030747592449188232, 0.1662229746580124, -0.07043833285570145, 0.024893010035157204, 0.18756595253944397, -0.09201318025588989, 0.10606900602579117, -0.10871393978595734, 0.17396943271160126, 0.1980714648962021, -0.07652878761291504, 0.02405795082449913, -0.04185070842504501, 0.08910927176475525, -0.044134847819805145, -0.35729730129241943], "2_bias": [0.12347444146871567, 0.2813795506954193, -0.07940547913312912],"obj_num": 5}