{"0_weights": [[-0.27640020847320557, 0.191590815782547, 0.061816949397325516, -0.3898138403892517, 0.19746209681034088, -0.7246970534324646, -0.5632634162902832, 0.3167800009250641, -0.41629570722579956, 0.05135396867990494, 0.3688117563724518, -0.36001676321029663, -0.47222238779067993, 0.07041613757610321, 0.1276513785123825, -0.6013847589492798], [-0.058904360979795456, 0.6673900485038757, 0.3606123924255371, 1.1392743587493896, -0.25402578711509705, -0.1767481565475464, 0.9480937123298645, -0.4415772259235382, 1.0926005840301514, 1.4938851594924927, 0.45313552021980286, 0.15431128442287445, -0.586202085018158, 1.0344233512878418, 0.743626594543457, 0.5155449509620667], [-1.0519071817398071, 0.022334638983011246, 0.3739062249660492, -0.5665259957313538, 0.6187876462936401, 0.5559433102607727, 0.46078726649284363, -0.17024894058704376, -0.9488033056259155, -0.06319911032915115, -0.647450864315033, 0.5352036356925964, 0.43357768654823303, -0.698177695274353, 0.5194854736328125, -0.3060169517993927], [-0.3484762907028198, 0.7615232467651367, 0.010649685747921467, 0.272501677274704, -0.22909900546073914, 0.4826698899269104, -0.40000900626182556, 0.4488190710544586, 0.022692523896694183, -0.08058340102434158, -1.0887186527252197, 0.3794737458229065, 0.2663656771183014, 0.22526971995830536, -0.15572643280029297, -1.0445506572723389], [0.44324037432670593, -0.5370137691497803, 0.014418456703424454, 0.916119396686554, -0.6442768573760986, 0.317817360162735, -0.13642701506614685, -0.10486036539077759, 0.25257715582847595, 0.9912898540496826, 0.7640151381492615, -0.16605786979198456, 0.7065673470497131, -0.4384344816207886, 0.5269327163696289, -0.0858277752995491], [0.638373613357544, -0.5507866740226746, 0.025997795164585114, -0.926401674747467, 0.25738632678985596, 0.45229312777519226, 0.09352516382932663, -0.6777037382125854, 0.05389538034796715, -0.013619588688015938, 0.37061479687690735, 0.3959386944770813, 0.3905813694000244, 0.9378693699836731, 0.1884041577577591, -0.3969521224498749], [-0.2074398249387741, 0.08966102451086044, -0.23089177906513214, -0.39924758672714233, -0.5586766600608826, 1.151305079460144, -0.42304641008377075, -0.026521585881710052, -0.8453085422515869, -0.7055808901786804, 0.6865059733390808, -0.4240514636039734, 0.1676824539899826, 0.20911149680614471, 0.11032221466302872, 0.6550952196121216], [0.5491973161697388, -0.6707732677459717, 0.6049797534942627, -0.4141489565372467, 0.14122211933135986, -0.042209915816783905, 0.468778133392334, 0.413070410490036, 0.15955893695354462, 0.013710185885429382, 0.15724417567253113, -0.005568390246480703, -0.7538377046585083, -0.22295980155467987, -0.41671890020370483, 0.0074881440959870815], [0.26952749490737915, -0.5756651759147644, 0.2209586799144745, -0.451668918132782, 0.22297494113445282, -0.1449892371892929, 0.30600622296333313, 0.07154814898967743, 0.3921259343624115, -0.5344526767730713, -0.02685759961605072, -0.24137407541275024, -0.10849352926015854, -0.1900983303785324, -0.4768160283565521, -0.34844136238098145], [0.6124358773231506, -0.5192865133285522, -0.12815716862678528, -0.40704581141471863, -0.5811532735824585, -0.05187428370118141, -0.22978316247463226, 0.1472087800502777, 0.6027575731277466, 0.030156735330820084, -0.0920514166355133, 0.1906481832265854, -0.3867441713809967, 0.4841982126235962, 0.1729929894208908, 0.47806665301322937], [0.20129521191120148, -0.3022255301475525, 0.6057406067848206, -0.04034997895359993, -0.0977945551276207, 0.5951023101806641, -0.14582042396068573, -0.46790364384651184, -0.631341814994812, -0.04447609558701515, -0.19696669280529022, -0.28380370140075684, -0.023143569007515907, -0.1358572393655777, 0.0195064265280962, 0.07733148336410522]], "1_weights": [[0.0836130902171135, 0.6757044792175293, 0.3895683288574219, -0.23397871851921082, 0.08918289840221405, 0.9431478381156921, 0.5983008742332458, -0.15965041518211365, 0.16894692182540894, 0.8809106349945068, 0.46875324845314026, 0.45140743255615234, 0.9556573033332825, -0.544135570526123, -0.40007293224334717, 0.45181477069854736], [-0.4847642481327057, 0.5891451835632324, 0.6213980317115784, -0.29252365231513977, -0.978939950466156, -0.2262546569108963, -0.6008008718490601, -0.15273898839950562, 0.22804322838783264, 0.08503440022468567, 0.44996315240859985, 0.2542211711406708, 0.6568018794059753, -0.80526202917099, -0.5301672220230103, 0.32798898220062256], [0.16552267968654633, -0.2560730576515198, 0.13069884479045868, 0.3444348871707916, -0.06308256089687347, 0.24973927438259125, -0.4318801760673523, -0.25482282042503357, 0.10206367820501328, 0.5358208417892456, 0.7469468712806702, 0.03556289151310921, -0.35326725244522095, -0.4208526909351349, 0.12308397889137268, 0.2369813174009323], [0.46908262372016907, 0.18156610429286957, -0.666998028755188, 0.5812095403671265, -0.0394446924328804, 0.09725847840309143, -2.5551798343658447, -1.1929436922073364, -0.08725535869598389, 0.520126461982727, -0.7284978032112122, -1.9188069105148315, -0.39157262444496155, 0.1814614236354828, -0.24903792142868042, 0.607367992401123], [0.17030882835388184, 0.2667510211467743, -0.08444622904062271, -0.9931837916374207, 0.3623136281967163, -0.14030073583126068, 0.5619817972183228, -0.5656344890594482, -0.5048224329948425, 0.3329389691352844, -0.024234909564256668, -0.142547145485878, -0.5999577045440674, -0.21288378536701202, 0.021015198901295662, 0.05105998367071152], [0.6929766535758972, 0.5215368270874023, 0.11891808360815048, -0.12508392333984375, 0.15636040270328522, 0.8703535199165344, 0.6633429527282715, 0.49192917346954346, -0.0847504511475563, 0.2706517279148102, 0.66483473777771, 0.6798077821731567, 0.35298505425453186, 0.3210121989250183, -0.3659486770629883, -0.14275719225406647], [-0.3851660490036011, 0.12330278754234314, 0.09449251741170883, 0.7920862436294556, 0.1079423651099205, 0.2710287570953369, -1.0169873237609863, -0.23282063007354736, 0.45620888471603394, 0.3493281900882721, 0.020343782380223274, -1.312073826789856, 0.7859907150268555, -0.2110430896282196, 0.5976917147636414, 0.15911716222763062], [-0.2813602387905121, 0.34813979268074036, -0.04340966045856476, 0.3376083970069885, 0.38376718759536743, -0.9321670532226562, 0.2206084430217743, -0.6289923191070557, 0.06512217968702316, 0.07290827482938766, -0.32220491766929626, -0.08160370588302612, 0.5440738797187805, -0.02598845772445202, -0.4557349681854248, 0.18410339951515198], [0.1687108725309372, 0.051510103046894073, 0.011315391398966312, 1.2178230285644531, 0.5277928113937378, -0.2975452244281769, 0.3669758141040802, 0.5141001343727112, 0.492056667804718, 0.23205047845840454, -0.2837173342704773, -0.22184176743030548, -0.4762684404850006, 0.3839839696884155, -0.5611958503723145, 0.16962184011936188], [0.2891736924648285, 0.052176497876644135, -0.17633174359798431, 0.04846011474728584, -0.04238395765423775, 0.3940138816833496, 0.6365267634391785, -0.10823943465948105, -0.5165554881095886, 0.4398694634437561, 0.27920350432395935, -0.06287766993045807, -1.1972922086715698, 0.35210809111595154, -0.27569952607154846, -0.05796795338392258], [-0.5092209577560425, -0.7555131316184998, 0.4982847571372986, 0.05671503767371178, 0.8839203119277954, -0.18188968300819397, -0.02680637687444687, -0.11268072575330734, -0.3709319531917572, -0.2678167223930359, 0.8346673250198364, -0.19361688196659088, 0.3223637342453003, 0.472351998090744, 0.2370317280292511, 0.3566182255744934], [0.501831591129303, 0.3381088376045227, -0.27008774876594543, -0.519223153591156, 0.2729930281639099, -0.31258562207221985, 0.008614039048552513, 0.6257582306861877, 0.0004920245846733451, -0.06198032945394516, -0.03249623626470566, 0.42913541197776794, -0.0670303925871849, -0.12859997153282166, 0.24166256189346313, 0.30487436056137085], [0.19914314150810242, -0.30715298652648926, -0.13072939217090607, 0.30730509757995605, 0.17836223542690277, -0.02003982476890087, -0.8538663983345032, 0.6920744776725769, 0.722501814365387, -1.5010428428649902, 0.3055211007595062, 0.2609913945198059, 0.26480787992477417, 0.7106122374534607, 0.33123260736465454, -0.5263352990150452], [0.24324139952659607, 0.3002326190471649, 0.1302553415298462, 0.42802098393440247, -1.3305326700210571, 0.02815425582230091, -1.3784624338150024, 0.28259557485580444, 0.3235991895198822, -0.06494404375553131, -0.3448132276535034, 0.04874161630868912, -0.13465569913387299, -0.426663339138031, 0.8388229608535767, 0.998649537563324], [-0.33707383275032043, -0.3354443311691284, 0.4518251121044159, 0.15682700276374817, -0.37645742297172546, 0.42364931106567383, -0.3432154655456543, 0.12005604058504105, 0.22783413529396057, 0.011736343614757061, 0.5300235152244568, -0.4425753951072693, -0.31699541211128235, -0.4494956135749817, 0.22176648676395416, 0.24152302742004395], [0.6626691222190857, 0.04904984310269356, -0.10279902815818787, -0.11706562340259552, -1.3999872207641602, 0.07420601695775986, -0.6101781129837036, 0.2863936424255371, 0.20996230840682983, -1.2396413087844849, -0.24589568376541138, -0.27372923493385315, -0.23632551729679108, -0.25510168075561523, 0.07688920944929123, -1.1528316736221313]], "2_weights": [[0.023278748616576195, 0.1923217475414276, 0.571242094039917], [0.30000996589660645, 0.4832645654678345, 0.4665665626525879], [0.01575208641588688, -0.5818545818328857, 0.10738694667816162], [-0.14376206696033478, -0.42461830377578735, -0.891266405582428], [1.1486916542053223, 0.834784209728241, 0.7684525847434998], [-0.6410692930221558, -0.7678378820419312, -0.9827567338943481], [1.190080165863037, 1.0289748907089233, 1.390033483505249], [-0.4771762192249298, 0.015393725596368313, 0.05988531559705734], [-0.7667432427406311, -0.030919086188077927, 0.3993125855922699], [0.39071789383888245, 0.5707622170448303, 0.6018997430801392], [0.687382698059082, 0.5006468296051025, 0.26933321356773376], [0.5149054527282715, 0.7656845450401306, 0.6418749690055847], [-1.0454188585281372, -1.0816878080368042, -1.2091721296310425], [-1.2446609735488892, -0.8056681156158447, -0.2672298550605774], [-0.6489399075508118, -0.9052888751029968, -0.9778870940208435], [0.846207320690155, 0.2032105028629303, 0.01639237068593502]], "0_bias": [0.10445420444011688, -0.05268506333231926, -0.05010547488927841, 0.007060579489916563, 0.04073681682348251, -0.1123713031411171, -0.22225405275821686, 0.2268839329481125, 0.13136827945709229, -0.11533953249454498, -0.09908980131149292, 0.03154417872428894, 0.18120087683200836, -0.1317373365163803, -0.13056087493896484, 0.07269217073917389], "1_bias": [0.14911575615406036, -0.10631836950778961, 0.02770090475678444, -0.13996851444244385, 0.05507215857505798, 0.09928741306066513, 0.02203300967812538, -0.016926340758800507, 0.05903557687997818, -0.10516323149204254, -0.0881182849407196, 0.07599274069070816, 0.21220755577087402, 0.1769324690103531, 0.3080419898033142, -0.24947401881217957], "2_bias": [-0.2478780299425125, -0.05540049448609352, -0.07903306186199188],"obj_num": 4}