{
    "0_weights": [
        [
            -0.17560438811779022,
            -0.09161601960659027,
            -0.0792897418141365,
            -0.15922699868679047,
            0.1393328756093979,
            -0.7285174131393433,
            -0.695967972278595,
            0.1115579828619957,
            -0.2926557660102844,
            -0.07553578168153763,
            0.7768372297286987,
            0.14329229295253754,
            -0.5758638381958008,
            0.03266157582402229,
            0.05578942596912384,
            -0.47542527318000793
        ],
        [
            -0.8429325819015503,
            0.47200724482536316,
            0.3871228098869324,
            -0.6180508136749268,
            -0.571122407913208,
            -0.10570897907018661,
            0.8512223958969116,
            -0.29154807329177856,
            0.5576979517936707,
            0.624112069606781,
            0.06390383094549179,
            -0.35913679003715515,
            -0.17409183084964752,
            0.5781347155570984,
            0.35225456953048706,
            0.02330845221877098
        ],
        [
            -0.1504397839307785,
            -0.6636636853218079,
            0.18365366756916046,
            -0.679254949092865,
            0.11225168406963348,
            0.464045912027359,
            0.40003877878189087,
            -0.18524393439292908,
            0.012683154083788395,
            0.24545273184776306,
            -0.6423636674880981,
            0.6028326153755188,
            0.07129788398742676,
            -0.20298539102077484,
            0.16826176643371582,
            -0.10097561776638031
        ],
        [
            0.08967253565788269,
            0.3206745386123657,
            0.2883378267288208,
            0.4029417335987091,
            -0.35755449533462524,
            0.36878493428230286,
            -0.3156566321849823,
            0.49955496191978455,
            -0.5763745307922363,
            -0.2219669371843338,
            -0.1766486018896103,
            0.28852853178977966,
            -0.14521770179271698,
            -0.16727504134178162,
            -0.14037635922431946,
            -0.8850962519645691
        ],
        [
            0.8788153529167175,
            -0.05565221235156059,
            0.4054846465587616,
            -0.06970762461423874,
            -0.8312970995903015,
            0.2963469624519348,
            0.21369676291942596,
            0.21902520954608917,
            0.6548461318016052,
            0.7850601673126221,
            0.8432701826095581,
            0.22464774549007416,
            0.9778521060943604,
            -0.5021917819976807,
            0.5261498093605042,
            0.391233891248703
        ],
        [
            0.4566202759742737,
            -0.6682277917861938,
            0.03495602309703827,
            -0.4921271502971649,
            0.6035480499267578,
            0.38524240255355835,
            0.2813745141029358,
            -0.7429189085960388,
            0.2780000865459442,
            -0.005813447758555412,
            0.4068242311477661,
            0.3289610743522644,
            0.48599234223365784,
            0.7268613576889038,
            0.4035091996192932,
            -0.19647973775863647
        ],
        [
            -0.2796002924442291,
            0.23095785081386566,
            -0.21419189870357513,
            -0.15694575011730194,
            0.0626361221075058,
            0.4249730110168457,
            -0.23275208473205566,
            0.010912260971963406,
            -1.0205912590026855,
            -0.7287641167640686,
            0.4298582971096039,
            -0.6819451451301575,
            -0.19371743500232697,
            0.3309120535850525,
            0.16092385351657867,
            0.6962565779685974
        ],
        [
            0.9296661019325256,
            -0.9486377239227295,
            0.3292163014411926,
            0.32430940866470337,
            0.3245029151439667,
            0.12777449190616608,
            0.4371618628501892,
            0.6340343356132507,
            -0.22145254909992218,
            -0.2705850601196289,
            1.1128734350204468,
            0.49441948533058167,
            -1.1456794738769531,
            -0.19295558333396912,
            -0.12430411577224731,
            -0.2886362373828888
        ],
        [
            0.26924431324005127,
            -0.3804597854614258,
            -0.07334192842245102,
            0.5600261092185974,
            0.17495575547218323,
            0.09978601336479187,
            0.2611592411994934,
            0.15429607033729553,
            0.15243953466415405,
            -0.3534609377384186,
            -0.4816897511482239,
            -0.44415760040283203,
            -0.3215735852718353,
            -0.06322723627090454,
            -0.23448720574378967,
            -0.4552331268787384
        ],
        [
            0.3896244764328003,
            -0.5598569512367249,
            -0.18872949481010437,
            -0.11105739325284958,
            -0.5004072189331055,
            -0.17608888447284698,
            -0.016865720972418785,
            0.5077847838401794,
            0.052507974207401276,
            0.1450728476047516,
            -0.2269906997680664,
            -0.006411177106201649,
            -0.23981980979442596,
            0.0691361129283905,
            -0.30471721291542053,
            0.30816444754600525
        ],
        [
            0.1684543639421463,
            0.00620260601863265,
            0.580606997013092,
            -0.050844307988882065,
            0.1670904904603958,
            0.3308829069137573,
            -0.10198067128658295,
            -0.26365232467651367,
            -0.6685693264007568,
            0.5327546000480652,
            -0.035710372030735016,
            -0.042036473751068115,
            -0.15352590382099152,
            -0.23907828330993652,
            0.035156261175870895,
            -0.0500338114798069
        ]
    ],
    "1_weights": [
        [
            0.6170070171356201,
            -0.3026462197303772,
            0.5970003604888916,
            0.28948265314102173,
            -0.04287828505039215,
            0.6466266512870789,
            -0.25253501534461975,
            0.14637638628482819,
            0.5788848996162415,
            0.4628792107105255,
            0.7078971862792969,
            0.5398155450820923,
            0.5300547480583191,
            0.3783397376537323,
            0.46678757667541504,
            0.00735707301646471
        ],
        [
            0.7771714329719543,
            0.2164396345615387,
            0.24340805411338806,
            0.20517268776893616,
            -0.25618916749954224,
            -0.10262515395879745,
            -0.6064043045043945,
            -0.32923996448516846,
            0.8635929822921753,
            -0.6328478455543518,
            -1.8553146123886108,
            -1.8748159408569336,
            0.7909623384475708,
            0.4814772605895996,
            0.24261809885501862,
            0.008709728717803955
        ],
        [
            0.3920036256313324,
            -0.2781154215335846,
            0.14339011907577515,
            0.2264971137046814,
            -0.19490207731723785,
            0.34127792716026306,
            -0.3353908658027649,
            0.5258321166038513,
            0.16328485310077667,
            0.806420087814331,
            -0.7174863219261169,
            0.23249922692775726,
            -0.1441110223531723,
            0.017524778842926025,
            0.09340385347604752,
            0.4021584093570709
        ],
        [
            -0.39557385444641113,
            0.23394271731376648,
            -0.5075443983078003,
            0.3746015429496765,
            0.1945101022720337,
            0.32703202962875366,
            0.07431340217590332,
            0.3461144268512726,
            -3.6218600273132324,
            0.21550342440605164,
            0.07432350516319275,
            -0.3071175217628479,
            -0.22210702300071716,
            -0.17417870461940765,
            -0.6710847020149231,
            0.44118043780326843
        ],
        [
            -0.6617081165313721,
            -0.2448233664035797,
            -0.1063089445233345,
            -0.16964319348335266,
            0.5087383985519409,
            -0.23933292925357819,
            0.7846947908401489,
            -0.5019065737724304,
            -0.7038849592208862,
            0.13663989305496216,
            0.01575232669711113,
            -0.10699226707220078,
            -0.39242270588874817,
            -0.8904126286506653,
            -0.4962663948535919,
            -0.6685038805007935
        ],
        [
            0.33689484000205994,
            0.5121453404426575,
            0.188669815659523,
            0.019218333065509796,
            -0.24860581755638123,
            0.65143883228302,
            -0.15194499492645264,
            0.3453090190887451,
            0.46440356969833374,
            -0.6114442348480225,
            -0.009450317360460758,
            0.48315054178237915,
            0.36850011348724365,
            0.5285109281539917,
            0.19344474375247955,
            -0.40507128834724426
        ],
        [
            0.14246010780334473,
            0.7059186100959778,
            -0.11408966034650803,
            0.19778278470039368,
            -0.7296479940414429,
            0.36969271302223206,
            -0.08266390115022659,
            -0.7107882499694824,
            -0.1919875293970108,
            -0.030235791578888893,
            0.42298373579978943,
            -0.5686182975769043,
            0.24421866238117218,
            0.27073758840560913,
            0.36305269598960876,
            -0.37565141916275024
        ],
        [
            -0.6387390494346619,
            0.6551122069358826,
            0.5250858068466187,
            0.29594895243644714,
            0.18683238327503204,
            0.02051638811826706,
            0.5640157461166382,
            -0.23142169415950775,
            -2.417863368988037,
            0.33367446064949036,
            -0.4024372398853302,
            -0.10414765030145645,
            0.2267250418663025,
            -0.7742664217948914,
            -0.2794545590877533,
            0.17451739311218262
        ],
        [
            0.704186737537384,
            0.23540203273296356,
            0.3550654649734497,
            0.42771658301353455,
            -0.13771700859069824,
            0.23102355003356934,
            -0.9283814430236816,
            0.552140474319458,
            0.7571155428886414,
            -1.5681281089782715,
            -0.12985117733478546,
            -0.21746057271957397,
            0.2336290031671524,
            0.7376006245613098,
            -0.012142117135226727,
            -0.2281206250190735
        ],
        [
            0.028982020914554596,
            -0.41714712977409363,
            -0.36945340037345886,
            -0.19472308456897736,
            0.04161515086889267,
            -0.30837392807006836,
            0.8732188940048218,
            -0.6030043363571167,
            0.015171113424003124,
            0.9035143256187439,
            -0.6125884056091309,
            -0.829531192779541,
            -0.5524492263793945,
            0.13584022223949432,
            -0.30490797758102417,
            0.4592396318912506
        ],
        [
            -0.2860076129436493,
            -0.7366069555282593,
            0.18392729759216309,
            0.5110634565353394,
            0.5677931904792786,
            0.2552967071533203,
            0.09315641224384308,
            0.06286679208278656,
            -0.667585551738739,
            -0.463112473487854,
            0.43102410435676575,
            0.006004175636917353,
            0.5110448002815247,
            0.2247532457113266,
            0.1367940455675125,
            0.39564111828804016
        ],
        [
            -0.8325096368789673,
            0.12274220585823059,
            -0.057053860276937485,
            -0.6052307486534119,
            0.5270291566848755,
            -0.3241331875324249,
            0.29677078127861023,
            0.20078133046627045,
            -0.6382423043251038,
            0.39351609349250793,
            -0.05516960099339485,
            -0.0912240743637085,
            -0.11502580344676971,
            -0.7450438737869263,
            -0.007120931521058083,
            0.2013082355260849
        ],
        [
            0.6087670922279358,
            0.09740874171257019,
            -0.04637628048658371,
            -0.32903486490249634,
            0.8163692951202393,
            -0.4506915807723999,
            -0.18468783795833588,
            -0.4909483790397644,
            0.6545339226722717,
            -1.2381010055541992,
            -0.3515338897705078,
            -0.661363422870636,
            -0.11971079558134079,
            0.5260977149009705,
            -0.0017597791738808155,
            -1.0623210668563843
        ],
        [
            0.03838610276579857,
            0.2706473171710968,
            0.3130168616771698,
            0.28130465745925903,
            -0.27540525794029236,
            -0.07715388387441635,
            -0.21348199248313904,
            0.42428070306777954,
            0.07257983833551407,
            0.1772403120994568,
            -1.3314497470855713,
            0.21762694418430328,
            -0.03996190428733826,
            0.037615321576595306,
            0.5365101099014282,
            0.11180006712675095
        ],
        [
            0.2770659029483795,
            -0.36796391010284424,
            0.372959703207016,
            -0.07098948955535889,
            -0.16385594010353088,
            0.3540734350681305,
            -0.00944980513304472,
            0.2672397494316101,
            0.3198636770248413,
            0.34223705530166626,
            0.12067315727472305,
            -0.5140835642814636,
            0.11948250979185104,
            -0.17932049930095673,
            0.17586183547973633,
            -0.06228148564696312
        ],
        [
            0.6848698258399963,
            0.266367644071579,
            0.2506491243839264,
            0.6753371953964233,
            -0.9032688736915588,
            0.48939812183380127,
            -0.29819855093955994,
            0.22278542816638947,
            0.6841888427734375,
            0.13328911364078522,
            0.5333883762359619,
            0.11021852493286133,
            0.13249021768569946,
            0.30081233382225037,
            0.24791142344474792,
            0.5230879783630371
        ]
    ],
    "2_weights": [
        [
            -1.2039391994476318,
            -0.43684229254722595,
            -0.1625668853521347
        ],
        [
            1.1770161390304565,
            0.9033967852592468,
            0.8083130717277527
        ],
        [
            -0.47221919894218445,
            -0.42185282707214355,
            0.07411257177591324
        ],
        [
            -0.1307940036058426,
            -0.16985191404819489,
            -0.5778161883354187
        ],
        [
            0.7506176829338074,
            0.4356190860271454,
            0.3208891451358795
        ],
        [
            -0.3330717086791992,
            -0.6667259931564331,
            -0.5027862191200256
        ],
        [
            0.7126463651657104,
            0.7738350033760071,
            0.6636093258857727
        ],
        [
            -0.38644275069236755,
            0.1310562789440155,
            0.1056860089302063
        ],
        [
            1.5409860610961914,
            1.0271883010864258,
            1.3910608291625977
        ],
        [
            0.8616610765457153,
            1.0896905660629272,
            1.1311085224151611
        ],
        [
            0.7207030057907104,
            -0.4507414698600769,
            -0.017580419778823853
        ],
        [
            0.9610766768455505,
            0.6631567478179932,
            0.47982117533683777
        ],
        [
            -0.5845577120780945,
            -0.31352007389068604,
            -0.8451506495475769
        ],
        [
            -0.6557464599609375,
            -0.8397090435028076,
            -0.8072779774665833
        ],
        [
            -0.23063158988952637,
            -0.2951691448688507,
            -0.3129572868347168
        ],
        [
            0.5959352850914001,
            0.22077976167201996,
            0.3092260956764221
        ]
    ],
    "0_bias": [
        -0.08259375393390656,
        -0.22475644946098328,
        0.017554987221956253,
        0.37947702407836914,
        0.26085200905799866,
        -0.05613134801387787,
        -0.061292797327041626,
        0.13578280806541443,
        0.00822779443114996,
        -0.08987191319465637,
        0.09974485635757446,
        -0.008914919570088387,
        0.27543795108795166,
        -0.14816662669181824,
        -0.059875618666410446,
        0.20694883167743683
    ],
    "1_bias": [
        -0.18255624175071716,
        0.2486041784286499,
        0.02016962133347988,
        -0.01619122177362442,
        0.06415952742099762,
        0.061273857951164246,
        0.28670215606689453,
        0.09527807682752609,
        -0.27471670508384705,
        0.15819577872753143,
        -0.40671950578689575,
        -0.12959180772304535,
        -0.0004712077497970313,
        -0.017141202464699745,
        -0.02170761488378048,
        -0.012493208050727844
    ],
    "2_bias": [
        -0.12389233708381653,
        0.016272544860839844,
        0.25752928853034973
    ],
    "obj_num": 3
}